564 20
的 0.013268567 -0.15218961 0.015779153 -0.7924572 -0.2716759 0.26219168 -0.87270665 1.4358885 0.05191395 0.42978474 0.31920683 -0.23965672 0.09013754 -0.19148412 0.20982568 0.5308751 0.5845486 0.6695801 0.34441176 -0.78330094
， -0.24120234 -0.18612175 -1.0627756 -0.2629943 0.081116036 -0.27095315 -0.30447024 0.30355304 -1.2235386 0.1468035 -0.19696806 0.101039894 0.34165943 -0.20259348 0.2473619 0.86261004 0.6736363 -0.31713778 -0.4722158 -0.682761
。 -0.9802987 0.21757504 -0.7710974 -0.26171193 -0.38008022 -0.5238947 -0.7213247 1.2787787 -0.021710409 0.0410935 -0.5913596 -0.021071123 0.098452345 -0.1977832 0.48109013 0.66914964 0.85179204 0.34256032 0.07592201 -0.6989924
一个 -0.15934484 0.0056781117 -1.1194308 -0.19899312 -0.013397095 -0.14132413 -1.1445057 0.57671106 -0.81576526 0.10095555 -0.1306908 -0.15561502 -0.8061754 -0.77345073 1.2256061 1.2208167 -0.1679671 -0.2667988 -1.2098962 -3.1824925
实例 0.61729985 -0.27752146 3.4929786 1.4770335 0.6756342 0.87420255 3.693905 1.319944 0.007341933 -0.5889401 1.0807365 -3.171411 -1.6414363 -0.12397749 1.1011871 -0.96290827 -0.9921624 -0.7217726 -0.66329575 0.6322742
为 -0.652113 0.70934945 3.7211773 -0.4780684 0.2899664 0.041430738 0.49505925 1.4607036 -0.42833588 -1.0217296 -0.097273186 -1.6334326 -0.11868317 1.7261126 0.8743014 2.5864253 0.69226325 1.0480611 -2.3312845 -0.018505571
是 -0.27148065 0.12396875 -1.2964922 -0.5446845 1.466987 0.11271698 -0.37385297 1.1339039 -0.5886171 -0.09646414 -0.72461236 0.74700403 0.14088456 -0.77477103 0.7719925 1.6983563 0.18536207 -0.4114228 0.07524031 -0.79998153
中 0.62515336 -1.7463065 -0.9488835 -0.15321372 -0.5011233 -0.9004236 -0.16847458 0.14382946 -0.6513578 0.90216184 2.5666072 -0.5797126 0.4207666 0.059043784 -0.08605316 0.3643601 -0.09415014 1.2155275 0.6573879 1.2051245
在 -0.7845012 -0.9863297 -1.0512077 -0.291393 0.642017 0.25131577 -0.45787662 -0.59888536 -0.5790342 0.012988799 1.915974 -1.4104161 0.8802946 0.7538675 -0.40290552 -0.13859718 1.5442823 1.6122774 0.7366393 1.1134676
可以 1.780285 -1.1194478 -0.60174257 2.0052652 1.5987521 0.25613648 0.45091626 -0.19304863 -1.7619807 -0.10833612 0.13158877 -1.0488378 1.1131114 0.7592007 0.5512119 -0.5158562 0.12587483 0.27363268 0.8170398 0.17168535
使用 0.35073426 -0.8813859 0.46452433 2.5722327 0.73677355 0.35751492 0.53656334 1.0973392 -1.3044119 0.21054131 -0.9699831 -1.3875486 -0.23926178 0.35220668 1.1725091 -1.9303614 -0.28395712 1.0331041 0.21602845 -0.50655246
返回 -3.9886203 1.0024077 1.095521 -1.4899993 -2.7523715 -5.063937 -0.8087323 3.6331847 -1.0563399 -0.3487651 -0.32685283 -0.288992 -1.4251038 0.56709766 -1.2648784 3.7538261 1.2168373 -0.6298523 0.10369214 -2.306256
文件 -4.6965995 2.967961 0.909059 0.40495422 -0.736445 2.0025945 -2.491633 -1.4069594 1.1010756 1.0048903 0.59403044 -1.70103 -0.6088568 -2.8870747 3.575583 1.7044004 2.75682 -0.47850674 -2.4147272 -1.4150919
字符串 1.4437544 -1.5864214 0.92492235 1.0674163 -3.5708756 -1.1980246 3.0817542 1.2384444 -1.5641721 2.1361253 -0.22192016 0.70618004 0.91951054 1.7532326 1.0533766 2.6989436 -0.3607486 -1.5887225 -1.519052 0.06267467
函数 1.4390055 -2.503465 0.7933163 -0.25195736 -0.45898086 1.4697064 2.4832172 3.8052843 0.35177606 -1.0287511 -1.0201042 -1.0226753 -2.1484993 0.122250386 1.4008802 -0.851045 -0.66357064 1.2494009 1.6171004 -3.0201342
和 0.5607279 -1.7325872 -1.263375 -1.5632217 1.3920686 0.08379438 0.5227669 2.563709 1.1168238 -1.087431 1.281989 0.5409388 0.1617182 0.9260591 1.0209372 0.36856312 0.76539296 -1.4038699 -0.28281242 -0.102670625
输出 1.1640924 -0.57213 5.1905394 0.94012934 1.3365934 2.3799436 2.495714 0.9093683 -1.0433018 -0.6624964 1.5447245 -3.649268 -1.917317 1.4866339 0.33689323 1.5865134 0.5352045 -0.74118924 -2.0064828 0.7559721
方法 -0.6199798 -0.12966639 0.70479834 1.6843777 1.3778089 0.7187533 0.76357 2.4154356 0.8218387 0.982668 0.5501628 -1.9186019 -2.2899427 -1.8548758 -0.6641959 -2.2208672 -0.06508675 -0.24103843 0.98201185 -2.8705459
结果 0.20838955 -0.15049054 5.1082816 0.42578545 0.96072114 1.9621538 2.1191297 1.16943 -1.2504638 -1.0188199 1.4948108 -3.6161509 -2.3527956 1.7103165 0.34815228 1.504167 0.55994934 -0.92959106 -2.4006488 0.03632866
如果 -3.2247553 1.1678815 -0.84876263 0.29939508 -1.2385733 -2.0589051 -0.16450734 -0.22345309 -1.9381131 -0.91251594 0.33206716 0.81471294 0.20424467 -0.83125705 0.9039743 1.1063308 1.2520373 0.9624916 -1.3805404 -0.33522367
了 -0.56248283 -0.7781142 -1.695551 0.33275187 0.6111928 0.72417647 -1.0575362 2.5555537 1.6638119 0.4733901 0.5034689 -1.4741763 -0.6940313 0.43420863 0.72447073 -1.5435995 0.45403543 1.1050442 2.2708833 -0.32320344
模块 1.6728873 -3.042563 0.14291966 -0.9289524 0.5640907 2.8384585 -2.2462194 2.0051627 1.7704792 1.4843866 1.3483775 -0.4908292 0.13705675 -1.0218779 1.958114 -1.8683378 1.8541498 2.980727 1.2287693 -2.0718489
列表 1.6481876 -2.4004228 0.04022321 1.7081364 -0.7186724 -3.7316635 1.3558738 1.7541729 -0.09042843 -0.16800568 4.6579156 -1.393003 1.7455391 -0.3415456 -0.7451092 0.76438546 -2.104284 -2.456815 1.2692316 -0.58835983
对象 0.16986285 1.633181 -0.88183594 -0.107431926 2.0311866 -1.8695111 0.50836974 1.9507041 -1.216738 -0.924625 -1.0904152 -1.3124931 -2.3213124 -1.1897985 -0.09765098 1.6887993 -0.9436587 -0.7116087 0.44617116 -4.315817
执行 -1.8016655 -0.27486736 3.2208672 0.94021994 0.76774466 2.2794256 0.17277744 -1.0463027 -3.42696 -1.8298419 1.3915898 -2.8617537 -1.6688603 -0.019217506 0.11888 -0.24470654 1.0074799 2.258072 -3.4788244 0.3428241
参数 -1.0947345 1.3039877 1.9388106 -1.2491399 -1.6172718 1.0717565 4.511466 3.243459 -0.60490733 -0.32141298 -0.9661514 1.0295193 -0.7377839 -3.020291 1.496857 -0.4976611 1.2686679 -1.3197534 0.48770317 -1.948596
如下 0.89820856 0.5532904 2.6976311 1.1888597 0.11666111 1.4504496 2.9910963 -0.31873035 0.20257533 -0.19147074 1.2215854 -2.5343173 0.05674607 -1.892581 0.9880524 -1.6125213 0.2183682 0.01415514 -0.69279724 0.29756692
将 0.38900664 -0.40414894 1.1018933 0.26566517 -1.0110067 -0.8863118 -1.8082778 0.91455555 -1.6646272 -0.68540376 -0.05507552 0.11023798 1.1930307 0.93735194 0.7201068 2.0681257 -0.3301905 0.7728526 -1.7452238 -1.3718156
值 -0.9814079 1.5662163 2.3037343 -1.433582 0.054276545 -0.706762 -1.0513824 4.106755 -1.4857246 -1.6607175 2.213852 -2.0387368 1.3495812 3.2274497 -0.5348825 5.3190475 -1.0030754 0.8820799 0.0070294198 0.12762439
元素 0.8551384 -1.0326253 1.3654641 2.6914234 -1.934755 -4.655111 1.2730522 2.373028 -1.8142414 2.0302856 5.7527523 -1.4735985 0.6586409 -1.2763956 -0.43031722 1.8905745 -2.030716 -3.66849 1.0747576 -0.6837511
变量 1.181659 -1.9487884 -1.245937 -2.6306717 3.7476537 0.8001674 1.7103164 1.3442351 2.3420556 -2.2554936 4.1486692 -3.0291138 0.1731817 3.5475671 -0.28690746 2.4497316 0.71827626 0.699825 -1.0893565 0.42183506
不 -1.6424633 -0.5805983 -1.6488968 0.7847254 0.09860444 -2.2147212 0.2547003 -0.28773925 0.31602228 0.09443322 2.8405273 -0.5033365 0.22146162 -0.112858646 -0.021589946 0.83206517 -0.07555449 -0.36940238 -0.6767885 0.35344958
以上 0.023876658 -0.03492947 5.20629 0.60877675 1.9848593 3.1041079 1.7817619 0.09154026 -0.9041622 -1.0691305 1.3953252 -4.0520086 -2.2825735 0.22543956 0.5070979 0.32182288 0.6812195 -0.67788786 -1.5226661 -0.17905882
你 -0.45151767 -0.59365916 -1.1507267 1.8381875 0.7352033 2.2395341 -0.24872118 -0.09766238 -2.3505166 0.08844519 -1.0032201 -0.06533683 1.900803 0.3048292 1.7605017 -1.0108043 2.6042244 2.5726912 2.1013658 2.1408894
匹配 -2.335573 -3.7543762 -1.7183218 0.24483888 -4.079739 -1.5985509 7.773304 0.043690044 -3.3842838 2.5482762 -0.4201065 -0.33891407 -0.81645286 -0.74456954 -2.077661 2.992032 3.4044535 -0.57319194 -0.82762015 -0.8488999
创建 -0.41336715 1.8019193 -1.4963284 4.2496867 1.047495 -0.7378712 -0.22404142 -0.28809804 -1.0551046 0.81235594 0.5787971 -1.7901443 -0.58271426 -1.7714608 2.6253834 -0.64038026 -0.9429373 -0.118796915 -1.3759066 -2.3896816
我们 0.44402966 0.9440538 0.13797033 3.7813847 1.9894034 -0.4191304 -1.151011 -0.9416114 -1.8939472 0.9445564 -0.2864659 -2.5148268 1.4149637 -0.4206952 0.7629 -1.4360707 0.27925545 2.0805933 0.7971386 0.6525362
到 -0.3229288 1.2464937 2.6597483 1.4357327 -1.1624328 -0.7250043 -2.355008 0.8179166 0.15147312 1.798785 0.6072052 -1.6374911 1.3663106 -1.1627784 -1.3805386 1.4585721 1.3919963 -0.61749446 -1.135146 0.26422018
语句 -0.5498819 -1.6479053 -0.083205946 2.3529727 0.03519998 -0.26358035 0.67397743 0.060987912 -5.3260255 -3.2050323 1.2232691 -1.5279555 0.19550416 -0.3453828 0.44543025 -1.8800412 -0.22776 3.7847538 -4.5840216 1.0715228
以下 -0.8921032 -0.06905108 1.2062399 1.7648238 1.0485085 -0.06596431 0.41846424 2.0682666 0.4760294 -0.95122945 -0.34259555 -3.6881897 -1.1462235 1.3177847 0.3671323 -2.1001828 0.11930039 1.549736 0.48602527 1.101355
会 -1.5626848 0.35561177 -0.7316851 0.9298984 1.5370026 0.3410694 -1.3702047 -0.9692992 -1.8688413 -0.60401434 1.5241553 -0.455034 0.35242552 -0.7085793 -0.1919514 0.23204009 0.039229102 1.1105155 -1.5609667 -0.6661079
来 1.4461875 -0.059429977 0.39451906 2.4229014 1.2688607 0.26509306 -0.10418387 0.24237026 -1.6728772 0.2780921 -0.7088776 -1.6132054 1.3388339 0.30877745 0.8028319 -1.4589918 0.6104876 1.7869352 1.5459528 -0.5795681
代码 -0.7044012 0.15827046 2.5365489 1.0652733 1.3230615 2.618978 -0.2559935 -1.1923835 -1.3788184 -0.45134142 0.24229634 -2.7652617 -0.8998274 -0.07788927 1.823141 -1.5510958 1.5043608 1.8204614 -1.2868125 1.1532407
或 -0.99506414 -1.546898 -1.8657632 -0.90145475 -0.109570965 -2.5262532 1.6366233 0.35011187 -0.7480528 -0.75822794 1.1775565 0.108571716 0.7411247 0.11690424 -0.29923388 1.066712 0.6183394 -0.07255949 -0.471706 0.5527525
被 -0.8179617 -0.9437706 -0.8415149 -0.5455568 0.8494881 0.8467616 -1.651976 -0.5738191 -1.1009305 -0.7386451 2.3225713 0.2432855 0.21083322 -1.1441205 0.30742335 0.7225227 0.7515315 0.69996804 -1.7208351 -1.3321452
元组 1.554161 -2.6743102 1.3519126 2.7175865 0.18933299 -4.4263134 1.202014 3.4376042 -0.22037716 -0.8197398 2.4048412 -0.369009 2.0451121 0.123523824 -0.8189587 1.6871177 -1.9272715 -3.689872 1.4079871 -1.4595915
也 0.5518876 -0.8992105 -1.2747287 1.7653093 1.137051 0.20464028 -0.0836111 -0.1743831 -1.6677701 0.6155881 0.7532801 0.43775758 0.94486034 -0.27910826 0.9473846 -0.32671618 0.33556357 0.026565947 1.002242 -0.54381555
指定 -1.3049753 1.3359962 1.0969547 -0.03186434 -2.584868 -3.1927023 0.36760938 1.9541401 -2.2081761 0.92311835 1.0318409 0.97349936 0.80008566 -0.8330544 0.6569518 1.4910033 0.8875515 0.63000876 -0.11957559 0.0754388
数据 0.41640678 2.3890784 1.5000076 2.29053 2.6949189 0.2779133 -2.3191679 1.545073 -0.86260223 -0.43923932 -0.22071236 -1.7210275 0.7345898 -1.9961982 1.6168929 -0.84023064 -0.03833709 0.11434463 -0.8697451 0.6641046
包含 -0.6948858 -1.159242 -0.9530686 -1.3526866 -0.65296596 -1.081537 -0.22593252 2.1984909 0.7572518 0.72314477 0.6053769 0.030448515 -0.6808371 -0.3620719 -0.15628052 0.1991617 0.5671202 -0.049877882 1.3141415 -1.3949878
从 0.5001845 -0.54221 1.4433078 0.7062263 -2.0749924 -0.7366022 -1.4402906 0.20862064 -0.32435745 2.0242243 2.9468982 -0.15299504 0.62490046 -0.87435204 -0.3111714 2.0718956 0.66158354 -0.9503266 -0.22251122 -1.5116919
用于 -2.6947095 1.1627754 -1.5034525 0.25855368 -1.8202091 -0.35628086 0.8283416 0.25860506 1.3720293 0.012458918 -0.46995026 -0.002803688 -0.24057782 -0.84930533 2.0714805 0.5932066 1.3602369 -1.1363482 -1.6956105 -1.118148
所有 -0.084501475 -1.5914435 0.18415686 -0.2216555 -1.6068032 -0.76316893 -1.2790283 0.7867788 -0.025224049 1.591573 2.5353925 -0.99462295 -0.8998459 0.033698447 -0.90749985 1.225148 -0.40423724 0.63662034 -0.74296016 -0.4497925
有 -0.1466598 -2.0557306 -1.670431 -1.006209 1.1163923 0.8529206 -0.3797529 0.89120275 0.45883426 -0.8063545 0.7208503 0.795855 0.026224986 0.6994293 0.07162225 0.90412873 1.7855797 -0.73826534 -0.8402212 -0.32585403
线程 1.6936724 1.7882084 -0.46582156 3.6785583 -1.5555154 3.5576806 -3.8480997 2.68223 2.6435125 1.3990214 4.746386 -0.80878085 -0.84631884 1.8044502 0.3525445 -1.3889824 3.8594627 -2.878063 1.3863909 -5.0085235
字典 3.8744843 1.910953 1.1473526 2.245556 2.624096 -3.389468 2.1954966 3.265185 -1.864967 -0.46192995 2.0045435 0.545598 1.6080704 -1.924811 3.7967153 1.958384 -2.8915281 -1.9172599 0.71550775 -1.5700377
并 -1.4246894 1.1158713 1.0234946 0.60085666 -0.61621237 -0.27866867 -1.3937087 0.10303642 -0.5073916 0.03193754 1.0944598 -1.1607511 -0.947391 -0.7050592 0.28803134 0.18773992 0.26142308 0.19796546 -0.6303177 -1.3181758
字符 -0.62259614 -2.493593 0.42904982 -0.28326002 -3.9106143 -0.14403929 2.6882684 1.3169422 -1.3840563 3.5376632 0.58023643 0.7200674 -0.7102892 1.8485079 -0.48989755 5.2505546 1.3824434 -0.52359474 -3.408102 -0.09023605
数字 0.32852444 -2.9766614 0.4397438 -0.7790498 -1.1391691 -0.04519275 2.8154666 2.0650086 -3.5684395 -0.5720241 -1.1900178 0.38170007 -0.16337727 1.8246118 1.5598675 1.5844694 0.97968936 0.8522281 -0.10546171 4.0764217
打开 -5.257878 3.3606744 0.75647587 1.4432682 -1.3227018 1.1139679 -0.96476734 -1.3429686 0.9115511 1.2737056 -0.17065594 -2.5035653 -1.7443739 -2.037501 3.2138486 2.0675874 2.3092248 -0.79211557 -3.9629273 -1.8612785
与 -0.25572345 -1.5438542 -0.019553049 -0.43451142 1.1902362 -0.11265906 0.6046918 1.6735891 -0.18041414 -0.63649946 -1.1916968 -0.980348 -0.35089615 0.8024805 -0.60352737 1.1043583 0.7958102 -2.1907308 -0.5750444 0.22212286
类 0.5664101 -0.29905647 -3.3996155 0.22372502 3.7936783 3.212569 2.915369 3.1953726 2.3032997 1.7046304 2.3623674 -1.9505398 -1.5436215 -1.079199 0.26562223 -0.44246945 -0.80800045 -0.38942856 0.7123939 -3.2916422
集合 0.29191342 0.4658055 -1.5505174 2.0689993 -0.58647203 -5.700393 1.2634239 3.1758428 -0.6542372 2.4149315 5.0315895 -1.3532819 -0.47940153 -1.4609481 2.1842844 1.0530663 -3.3002665 -0.5254784 1.9447092 0.8299554
内容 -1.5267423 2.3374908 1.9923748 1.1446438 -0.51419616 0.6254107 -0.2606767 -1.444806 -0.46318728 0.86771405 1.8828667 -0.34951854 0.66939 -3.317858 1.1811222 0.21243623 1.4283752 -1.187631 -1.5809033 -0.22760476
存在 -5.125929 2.6267922 -1.6454782 3.0106752 -2.8430738 -2.9469507 -0.03721566 -0.8309574 -0.38905874 1.4303812 3.9726207 -0.6218015 -0.13423231 -2.412361 2.287083 2.1218438 0.73988503 -0.41745752 -2.5967348 -0.95245516
则 -3.6764045 0.8807842 -1.4286665 -0.56521124 -2.2160075 -4.1544027 0.40886706 0.64211625 -2.7197983 -0.70704454 1.1824048 1.7833694 0.16715421 -1.2451628 0.08397641 3.227235 1.5048125 0.2189504 -1.7171942 -0.79906917
定义 0.9238431 -1.4207258 -2.983685 -1.0376239 2.1892762 2.9707017 1.3216078 2.5227647 0.969054 0.45030546 1.6260362 -0.49829143 0.38120902 -0.8045976 0.9586623 -0.5462298 0.24391696 1.9275312 0.8618969 -2.019437
该 -3.012601 1.7312101 -0.2354015 0.6928305 -0.9827319 0.19743922 -0.9274759 0.14369625 1.2306471 0.8435981 2.03648 0.07315269 -0.9445602 -1.8107904 1.6780916 1.2639556 1.3736733 -0.726328 -1.699638 -2.0031724
时 -0.87147397 -0.41749328 -0.67981464 -0.022020057 0.310734 2.3916721 0.8684402 0.44818908 -0.64114934 -1.01176 0.30408788 0.047572378 -1.9033351 -0.81849605 0.1387808 -0.39828333 1.2904145 0.9045116 -1.6480845 -1.4523075
需要 -0.5833138 0.5049778 -0.957521 2.128208 1.1378019 -0.5242124 -1.1343954 0.2272384 -0.31190425 -0.22999708 -1.3923103 0.26196194 1.305429 0.29575673 0.9596656 -0.3167517 1.3120519 0.5115535 1.0236754 0.7098544
都 -0.06548843 -1.9749792 -1.9125562 -1.8024414 0.4811644 -0.071738005 -0.9673438 0.44618246 0.88066536 -0.09856511 2.9677064 0.63332164 0.28854707 1.1067353 -0.020530233 1.2126124 1.8524461 1.5717835 -1.765718 -0.5554133
格式 0.86306256 1.0662935 0.6399791 0.9547518 -2.364421 -0.8146824 2.6640832 1.280145 1.3007336 0.7145662 0.38731012 0.10624147 2.0153384 -0.8856043 2.436438 0.081162766 0.2885486 -0.6120425 -0.8896421 -0.57463175
当前 -0.10943171 -4.0924387 4.5627093 -0.9006297 -1.3393486 1.2732893 -1.9752398 1.3555856 0.5810108 0.8857019 2.4179647 -0.22546963 -0.73142296 -0.26844618 0.34380624 1.068968 3.0672922 3.8551636 -2.4986491 -0.46063784
程序 -0.2429935 0.6348489 1.5327126 -0.43306428 2.293591 4.199087 -1.3783182 -0.85588753 0.6866308 -0.5021572 1.0086093 -3.2741635 -0.7923357 0.35873497 0.19469662 -0.21988769 2.5364854 0.9297494 0.13132386 -0.83662295
异常 -2.968412 1.616791 -4.8869185 -1.4375176 1.8890805 0.52867997 -0.8006791 1.5008605 -3.1559834 -3.3882678 1.0446444 1.3545374 0.94920653 -1.4757764 1.6538718 -0.6733396 0.3040923 2.039 -3.0726833 -2.5706975
数据库 -2.6637099 1.2570283 -2.2705553 7.232649 0.8476665 -1.5235503 -1.7822931 1.1465276 -2.663928 2.2454133 0.61590147 -4.996095 -1.4614078 -0.9587599 -0.11210291 -1.718251 -1.1712931 3.1527514 -3.0662217 -0.36060867
运算符 0.099990405 -0.8932781 -1.8655328 -0.6394734 0.544977 -0.5891424 0.4965217 3.476805 2.0890896 -0.26671317 -0.17751491 -6.2255263 -1.4078658 4.1731477 -1.8886011 3.1453352 2.2218647 -1.3511647 -1.5842513 3.71653
它 -0.1480587 -0.42872125 -2.6844118 -0.8944015 0.44948703 -0.055252235 -1.608821 1.2956141 -0.36628997 -0.13256302 0.23777178 0.9653439 1.2683924 0.11167812 0.67909324 1.1378783 0.917444 0.4086052 1.2113373 -0.91894823
类型 2.0175893 -0.0028237118 -1.3189667 -0.17757164 4.4323163 -1.1261907 -0.29610354 2.7544243 -1.2174126 -1.4036233 -1.0205207 0.3915673 1.4233266 0.9050123 1.2462972 3.7346258 -0.09898222 -2.4188962 -0.36461338 -0.48845604
表示 -0.14724103 -3.0930781 1.071269 -0.8490796 -2.3423796 -0.23218988 0.7345191 1.0054281 -0.10299237 2.0636015 -1.2514964 1.7496934 1.0118836 1.3806597 -0.07581047 2.9818113 2.8663442 -1.1678683 -1.3878785 0.63243085
转换 1.8172648 -1.1038852 1.8097051 1.1610267 -0.0050858934 -1.5196241 -2.7668478 4.862681 -1.5498239 -0.25897908 -1.9382284 -0.26778814 0.40235573 3.2942426 1.8206826 4.596117 -1.0344938 0.23644324 -2.3162925 -3.545591
后 -0.24157426 0.9904607 2.7284772 1.3048843 1.340552 0.9532627 -0.78050566 -0.13695781 -2.1375496 -1.2289839 1.3095938 -2.1630955 0.34816375 0.8011647 -0.75319135 1.5786514 0.13563915 -0.5582379 -1.8300331 0.09896394
没有 -1.9837259 -1.2067984 -1.481485 -0.581433 1.3323661 -1.2405342 -0.47057363 -0.42728317 -1.673828 -1.1795435 -0.06943145 0.15645255 0.45321432 -0.70242053 -0.378111 1.1436684 0.9478103 -0.07575863 -0.592718 1.1475787
开始 0.2932092 -1.2629637 3.7537525 1.9077055 -3.5354185 -0.16584407 -0.045895014 1.0968512 -1.2252741 2.92009 4.017751 -0.25101316 -0.6697345 -0.112990685 -0.5058357 3.828554 0.8150821 -2.4642198 -2.0081825 -1.5304582
删除 -0.9548564 0.54972136 1.4296284 2.5157297 0.64962417 -2.0281777 -0.5154181 -0.18850198 -3.1577158 -1.0799724 4.060364 -1.5125586 0.6279423 -1.2884586 1.0242984 0.69417053 -1.7697115 -1.3270863 -3.0938036 0.44659075
设置 -1.3644227 1.847085 2.5973845 0.056331407 -0.58459884 -0.5774609 0.43501985 -0.42163128 0.069529206 0.3841027 -0.88544667 -1.5239289 1.7537464 -1.0790606 0.5029442 -0.70053226 3.1789327 0.66408277 1.127953 0.49720076
或者 0.30559522 0.5336726 -1.2222389 0.022713684 -0.645333 -0.33051503 -0.048624415 -1.0425347 -0.5759607 0.9214142 0.520389 0.5424855 2.1607637 -1.5369878 1.7045534 -0.24702582 1.8764708 0.6144294 -0.26666948 -0.30381122
用 2.536331 -2.174663 -1.0115039 0.6323251 0.8889422 -0.8582483 0.8895618 0.044454094 -0.7660032 0.7388682 0.66363513 0.55884033 2.037382 0.4407796 1.694211 0.8183336 0.37831056 -2.222085 -0.84243387 0.061701834
安装 -4.430251 0.7052365 -2.8018818 3.7184107 2.936084 -0.96505386 -2.483667 -1.4046308 -1.1781441 0.84689844 -1.4219059 -3.5250928 1.8222133 0.71400464 1.5082325 -0.8358039 4.2876525 3.466431 2.2332025 3.0348558
访问 0.5957038 0.21045732 0.17821349 0.2586083 2.175143 1.8777144 0.41287473 -0.04564076 0.99234277 0.47400296 1.367939 -2.5267937 0.87825984 -1.2527775 0.35148835 0.2785412 0.8047278 0.6669706 1.7147366 -0.51964253
教程 -0.26732135 1.0118712 3.5006618 1.9178361 2.171971 1.2952237 1.958778 -0.43183908 -0.382522 0.43548608 0.87554014 -4.5842223 1.6396728 -3.4222045 2.5111835 -1.8878706 2.320917 0.29987255 1.6599767 3.810106
对 0.60459894 1.1161821 -1.32503 0.8111262 1.3867489 -1.610936 -1.768534 1.280914 -0.045511127 0.18307003 0.7853609 0.42373142 1.7579219 -0.9453429 1.9257681 1.149122 -0.2138164 -1.4260851 1.2549572 0.36112082
调用 -0.6429773 0.62938946 -0.2372163 0.67676485 0.5273832 3.01198 0.34014958 1.8149705 0.15886512 -0.20872918 0.62990224 -0.9014735 -2.789858 -1.5200318 0.49036914 -0.64296925 0.27957594 0.3096396 -0.48801813 -4.6499677
以 -1.194195 0.066656455 0.02216158 -0.6068904 -2.1158917 -0.61658716 0.2636283 0.9855987 0.005375213 0.14474419 -0.12650344 1.6149527 0.1648216 -0.24880339 2.4409873 2.2870018 0.8502081 -1.0281446 -2.745425 -1.3473555
时间 -0.25453565 -2.686982 5.5805798 0.33133876 -1.8348556 -0.3171005 -2.144489 5.0248065 3.727233 0.06990818 -0.98468065 0.2163073 0.61816835 2.9245334 1.8830403 -0.5803456 3.4413705 0.87426525 0.6226716 -0.7499515
表达式 1.882551 -2.539803 -1.8864514 -0.48899907 -0.5668809 -0.8349602 3.842627 1.168075 -1.589663 -2.1759663 0.57158613 -1.80498 0.15840916 2.2959883 -1.152678 1.201852 -0.17710622 0.24651514 -1.8145446 -0.4896235
导入 2.0025158 -2.5519896 0.39110798 -1.1362985 -0.20257305 1.636096 -0.8870766 1.0384017 0.24053425 1.6642994 0.90893114 0.13311352 1.6031382 -1.6403091 0.91853523 -1.1120037 2.1130548 3.5055232 0.7422662 -1.3075517
通过 1.1716584 0.8899833 -0.054294504 1.1381181 2.1578515 1.2537099 -0.6996449 -0.33532235 -0.9928667 -0.041389138 -0.3321948 -2.530873 0.6004171 -0.49534145 1.0580151 -0.56441194 1.0148989 1.1608635 0.77494085 -0.7162794
修改 -1.2090187 0.3956858 1.6494853 0.5802832 2.5883002 0.07411777 -1.0109733 -0.18520354 -0.08394138 -1.7340577 2.5954256 -2.1914308 1.1804253 -1.2941788 0.53819245 0.07235649 0.62301964 -0.37501675 0.92985255 0.9512719
这个 -0.6523714 0.16802852 -2.6770678 -1.6845098 1.5198634 1.4149398 -2.228656 0.33722553 -0.33208823 0.3460608 0.56025755 0.26544243 1.2848946 -1.1767268 0.5965991 0.20973164 2.0654838 2.0884426 1.2906139 -1.1497318
新 -0.6676739 1.238193 -0.44174755 1.4448618 -0.50758016 -0.16709705 -0.84081674 0.993845 1.5145248 0.34588113 2.898321 -0.46432912 -0.34538153 -0.57887685 1.4844902 1.6338611 -0.5367067 -1.8648385 -1.3255163 -2.691299
发送 -0.14076641 3.0644655 1.9659933 2.3072748 -0.018769931 -1.0242736 1.268424 1.0353903 -0.89578843 1.601519 -0.61916876 -1.5481349 4.0920787 -2.431117 -1.0800374 -0.47718275 4.5151777 0.6042218 0.830087 0.2460962
连接 -1.0869013 1.542145 0.9227345 4.6920104 -0.08434123 -1.5079244 -1.8414754 -0.22975041 -0.010264389 1.8008789 -0.98128927 -3.9975185 0.40153536 -0.71485895 -1.0027776 -0.9918229 0.14544365 1.2869362 -2.034339 0.09921312
进行 0.5638891 1.1162366 -0.3338761 1.1841512 1.3790343 -0.24214093 -1.6897998 0.87248504 -0.12161428 0.27792177 1.0400543 -1.1961777 1.1303955 -0.234889 1.5455817 0.7928426 -0.123983294 -1.2347714 0.7494699 0.59821707
提供 0.19942601 -1.1420267 -2.868762 -0.08438697 0.0099235745 1.4732603 -1.6859192 1.520787 1.4239239 1.9008943 0.016142288 0.41100127 1.1652269 -0.27061602 1.98013 -1.5393583 2.0900168 0.81265694 2.4928923 -0.55770123
邮件 -0.09522005 2.671258 1.7614162 2.9786086 0.2838087 0.3107616 2.664091 -0.1863493 -0.5420271 2.374852 -0.4392877 -1.5111123 6.1727595 -2.6234908 -0.5336714 -0.80920076 6.0544386 -0.06612881 1.1895397 1.5677624
操作 0.07845316 -0.39671394 -0.24167544 2.5364976 1.0289224 -0.52919 -1.2634737 1.4769074 0.5182756 0.5766548 1.5815747 -3.1778724 -0.7640357 -0.03263767 -0.6919858 -0.6685076 -0.91157204 -0.2719236 -1.1874409 0.018047221
可 -0.81287384 0.31286076 -0.65438706 0.03551334 -0.9361417 -0.13466874 3.8984485 0.77769107 -0.6718091 0.47059473 -1.6358525 -0.57155865 0.0209514 -2.0810916 0.26573578 -0.2072251 2.4046156 -0.6341664 1.1045731 -1.5590838
语法 0.6832312 0.43760267 -0.8372939 0.71271086 -1.3911412 0.6642253 3.198586 0.9228197 0.4633748 0.60466796 0.75062114 0.18368569 1.5869045 -0.95799136 1.4747738 -1.0744131 0.32998207 -0.12080822 0.278945 -0.24757497
例如 0.5300602 -0.9952461 -1.4633492 -0.39521217 1.1653235 0.07068327 0.5832988 0.7578714 -0.84504694 -0.5980426 -0.1786107 -0.009135204 0.6471145 0.63978 0.23914541 0.8114134 0.24821745 -0.1357966 -0.7684762 -0.6093719
是否 -4.035253 1.5514816 -1.316224 0.7490382 -1.3996167 -4.09292 0.86115867 1.0704159 -1.3212467 -0.15178485 0.5383497 -2.3229723 -0.68940926 -0.50896484 0.45450625 -0.02618584 0.51669496 0.6900085 0.24705184 1.6308656
必须 -0.53165567 0.2735193 -2.2922142 0.46437508 0.7922073 -0.41403604 0.9042592 2.214584 -1.4553409 -0.9352835 -0.0005952483 1.4756178 -0.938192 -1.3224092 0.9879783 0.146774 -0.9885659 -0.040895257 -0.8127534 -1.4471052
两个 -0.40970093 0.4497704 -0.25161344 -0.7833889 0.15760005 -0.44794348 0.94810164 2.2569659 0.69246936 -0.20583546 0.8961699 -1.8208048 -2.1381512 0.6362156 0.49161518 0.48787537 -0.12141884 -1.2087572 0.4996432 -0.1588232
下 -1.4197035 -0.39659664 -0.49325094 -0.013278027 -0.532352 -0.04633655 -1.155978 0.5864231 0.103351094 0.1727516 -0.81103784 -0.30813122 -0.07116751 0.3807042 0.56375027 0.57098085 1.2376539 0.9650446 0.2103601 -0.09101044
菜鸟 0.06801185 1.3058156 4.723611 1.2543576 2.0983145 1.88902 2.7145963 0.5791781 -0.03505568 0.32438397 1.7177747 -4.696939 1.212282 -3.9095 2.3963053 -2.0693321 1.9925559 -0.4508296 1.113665 3.058481
信息 -0.8387691 2.7895052 1.524669 -0.32332018 1.50694 1.0446143 -1.2198027 0.07356042 0.16276117 0.31920773 -1.397429 -1.6812721 2.3679824 -1.452323 0.015781842 -0.2227108 3.4638433 0.49656814 0.88506037 -0.2554866
脚本 -1.1436898 -0.23879851 2.5304775 -0.09518106 1.0018746 3.4837165 -0.7859045 -1.2386304 -0.3377516 -0.4238108 2.0461671 -3.0369503 0.057666022 -0.9653057 1.4954722 -1.2029753 2.9691124 2.16588 -0.5008368 2.068365
就 0.13027292 -0.10864209 -0.7243013 0.6557801 1.2535055 1.0700687 -1.781459 -0.41667098 -0.17507313 0.63103646 0.46479577 -0.57181835 1.5040112 -0.19737476 0.016221318 -0.24076593 1.8200984 1.5450704 0.2648726 0.2981394
位置 -1.0340685 -0.8753606 2.6592867 0.1792908 -3.3790748 -1.161919 1.982383 0.13496463 -1.2605687 1.8773981 1.8941894 0.6789289 -0.48771927 -1.2590895 -0.53186905 2.0906045 1.2440256 -0.8844986 -0.32354334 -0.48767963
输入 -0.7484925 -0.9230597 0.09032911 -0.32621327 0.35337502 3.5140245 0.8201624 0.5578944 -3.2777226 -0.42093012 -0.33648118 -1.3598917 0.6039177 0.5891726 0.79613954 -0.07899532 3.771214 2.108912 0.6439984 4.1844993
描述 -0.34056962 -0.33743215 0.70013845 -0.33957708 -0.90215445 -1.0108826 1.9418287 2.4671493 0.5793131 -0.009694885 -0.8652224 -2.1856935 -1.3873407 0.5393437 -0.8657765 0.8077181 -0.10980784 -0.58991104 -0.3821567 -0.99022937
整数 -0.36727214 -1.961286 -0.6747107 -1.2763768 -0.42849392 -2.6862473 -1.3750085 4.0871263 -1.1598119 -1.3086082 -1.088695 0.44270977 0.585107 2.74899 0.8056277 4.565515 1.1118625 -1.6150315 -1.5461634 -1.4497049
要 -0.66231877 0.534735 0.18822819 1.0612154 -0.6555687 -0.4352709 0.5092402 0.23723333 -0.9866718 0.12221176 -0.6202668 0.704209 0.5048683 -0.7695113 0.53571254 -0.32932806 0.32997015 1.1101649 -0.18199138 -0.4067751
模式 -2.608711 -0.50225973 -0.9717553 -0.5937269 -3.1868544 0.121713705 2.475469 -0.6128535 0.7268744 2.0070229 -1.2864039 0.933324 0.076957814 -1.3546922 1.9878666 1.5360875 2.3288994 -1.1786436 -0.82669437 -0.23956443
简单 0.5301924 0.71397126 -0.61408913 0.59054047 1.0892013 1.0480062 -0.35182732 0.6857802 0.6997879 0.14381684 -0.6845014 -1.1946402 0.6772127 0.09189625 1.076427 -0.40836832 0.9261902 0.2279451 0.6580648 -0.2827307
请求 0.3259783 3.3525033 3.26669 -0.52268964 0.25449082 -1.2025875 0.53959465 1.6106157 0.3747652 0.47021723 -1.0890448 -0.5029377 2.38285 -3.6111372 -1.0222974 -0.70624435 4.0199075 0.065398246 1.087849 -1.3449473
处理 -0.3272011 0.8831554 -0.9293766 0.3371087 1.1180946 2.1639876 -1.4914968 0.9176375 0.69284225 0.045965455 -0.38290393 -0.5004407 0.46118584 -1.175317 2.2927065 -1.584411 1.73387 0.78624076 0.083073616 -0.9427461
目录 -2.8251386 -0.123242915 -1.1282096 -0.40009528 0.11777043 0.0560896 -2.954234 -1.6629773 -0.21253398 0.7089392 2.0274382 -0.28831458 1.0205088 -2.0371127 1.5159601 -0.10930604 2.6093557 1.8083797 0.31559476 -0.16643727
不同 0.3637169 -0.9178322 -2.044454 -0.53936017 1.4045253 0.2869642 -0.6824076 1.745344 -0.6919258 -0.14016825 -0.05859076 0.58682287 0.17949064 0.04966693 1.027467 1.2031872 0.26023072 0.21178639 0.23534752 -1.2687391
错误 -2.8928092 0.8079511 -3.2374425 1.7506223 1.4206893 -0.8705805 -0.78210604 0.4459544 -1.9773084 -1.0060508 0.6492859 -0.7862412 -0.5834508 -1.0793105 -0.3215851 -0.42187092 -0.61558515 1.458296 -2.319134 -0.8506195
把 1.3414631 -1.420053 -0.66806734 -0.11802331 -0.03271991 1.0046476 -1.3258163 0.45730755 -0.14427169 0.95418674 1.8484251 0.66565484 0.581361 -0.7435504 0.6145914 0.4137336 0.26092595 0.38033548 -0.4062868 -1.0957974
索引 1.7112406 -1.20922 2.9260328 1.2184415 -1.4473073 -1.7401056 2.1563933 1.4276246 -1.210912 1.2124478 2.9909434 -1.1285497 0.8056343 0.38344115 -1.1279525 2.7502556 -0.49826092 -3.3786898 -0.49193728 -0.26864472
运行 -1.3479211 -0.61317 1.0987133 0.4089549 0.070745505 2.3615594 -1.2511214 -0.19755179 0.5410628 -0.41304177 1.3945528 -1.3013458 -0.99661255 0.4796027 0.0041437605 -1.0515714 2.6631932 1.2006035 0.052584562 -1.0364637
读取 -0.81326854 1.3730066 1.306607 0.5061185 -2.105023 -0.04473021 0.059768647 0.31839022 -1.3829294 1.3561381 1.2856586 -1.3374449 -1.990141 -1.2203162 0.07022453 0.68982106 0.592681 -0.82043463 -1.5676172 -0.71957684
这 -0.09778492 -0.9332444 -1.5855604 -0.26561296 1.0069449 1.013626 -1.3687462 0.69087124 0.04249938 0.37521744 0.10056451 0.43259495 0.34727433 -0.11343243 0.5826682 0.3498881 1.4781216 0.24424095 0.06216332 -1.0561934
属性 0.48597085 -0.04042838 -1.5877347 0.05226918 2.4935286 1.7666545 1.2928762 2.042637 2.2415364 1.3139316 1.4898099 -1.9507859 -0.37573978 -1.1520015 -0.00086757145 -0.3375361 0.52355593 -0.7044657 0.04852034 -2.2091181
序列 0.5661454 -0.6593107 -0.7926791 0.65000725 -0.40397945 -3.5481892 -0.3280081 2.3842711 -0.681596 -0.11441782 1.9764261 0.13756947 0.52643454 0.18444663 0.3529671 1.7587997 -1.209367 -0.8860084 1.1247625 -1.917876
其他 0.24771698 -0.24549608 -0.55961907 -0.2959663 0.6202484 0.91180384 -0.4349724 0.47179267 0.2645771 0.834321 -0.294806 -0.1878174 1.9138551 -1.3886096 0.55420357 -0.65361524 2.5903423 0.58237565 1.0373137 -0.2294859
默认 -1.7407147 0.4122769 1.1671298 -0.39975217 -2.0005 -0.051784787 1.0383241 0.93043375 -0.0034823555 0.47098047 -1.1340109 0.40686586 0.07839323 -0.69521147 1.3524444 1.0495852 1.7212547 0.35856456 -1.0669329 -0.8681872
已 -4.245886 1.6854134 -0.38922176 2.73616 -1.3109797 -1.3829736 -1.0149722 -0.6104427 -0.6925259 1.2212906 1.7110101 -1.9399534 -1.0216647 -1.6275187 1.9467738 0.83919275 0.7678895 0.3035412 -2.569713 -0.63682914
如 -1.5900233 -0.45160118 -1.7813764 -0.8286041 -0.8092727 -1.6114875 0.23345202 1.2174819 -0.2937258 -0.48070842 -1.6099453 0.7405444 1.205485 0.21908265 0.6449135 1.2744726 1.9917074 -0.17686644 0.38626298 -0.42531458
路径 -1.8361808 0.29515228 -0.16007926 -0.7612816 -0.009923176 -0.3893541 -1.6777712 -0.77813846 0.029671958 0.61359894 0.45464066 0.3662838 2.0703423 -1.6863383 0.97563183 -0.059501905 2.9722466 1.3920721 0.5311103 0.4386555
运算 0.5036428 -0.86605936 0.7072048 -1.0610973 0.879711 -0.15346546 0.7107747 4.028157 0.1379115 -0.26501524 0.31457707 -3.9697013 -1.5096222 3.4545128 0.13720898 2.9995291 1.0440241 -1.2277597 -1.349605 2.054756
名称 1.6287913 -3.5483522 -0.4143298 -1.6591771 0.29033908 2.5369995 -0.72436213 2.088527 1.1800494 0.41687486 1.0261046 0.44007912 0.4262705 -0.45603377 1.0234321 0.29889852 0.86068517 2.6363409 -0.36643755 -0.6261877
Python3 0.33107457 -0.5972687 -0.310547 0.4237066 0.33150682 -0.06877399 0.56449074 0.9340471 -0.24088849 0.102442175 0.30024856 -0.6393051 0.40610167 -0.39343777 0.52222687 0.06991232 0.5280332 0.021168606 0.15969811 0.033346266
而 0.5160841 -1.0068637 -2.3069954 -0.2799737 0.5058341 -0.26923028 -0.5404961 0.8193331 -1.1639841 0.12714535 0.76951396 1.6239741 0.911841 -0.44867918 1.0154011 0.8136736 0.31979293 0.18965726 -0.08649447 -1.5443628
支持 0.0043274285 -0.2210711 -2.9782412 0.75463426 1.1933199 0.1631078 -0.73168486 0.9002771 1.2038233 0.4292361 0.33765203 -0.50731647 0.59706444 0.7612072 0.7726669 0.27934793 0.69398695 -0.24220061 0.6204675 0.4850918
注意 -0.71608937 -0.53802514 -0.93184036 1.1751828 0.7295348 -0.9575266 0.24682559 0.1265208 -1.25904 0.058567464 0.59364414 -0.51234865 0.5725643 -0.17681514 0.083833404 -0.37072805 0.36478436 0.07144921 0.29286075 1.0329757
于 -0.85554826 -2.1228373 -2.2473888 -0.47773364 -1.0162399 -0.28381476 0.793704 0.29389176 0.17248122 1.1049558 0.47648507 0.4440626 0.3454107 0.38337532 -0.050975103 1.3970981 1.5742794 0.030939978 0.12980177 0.48822397
关键字 0.15757003 -0.002289387 0.70276254 -0.20284623 1.0675975 1.3061821 2.5614755 1.7174864 -0.9524943 -1.3796083 0.40903017 0.6967861 0.003624049 -0.8317883 1.6812773 -0.15768665 0.18450658 -0.21895826 -0.8603575 -0.05984738
正则表达式 -1.3971388 -1.9902616 -2.9007053 -0.21962085 -3.07461 -1.359545 4.192486 0.44751555 -0.8793989 1.9833268 -1.9226943 0.94164926 0.5856929 -0.65309155 0.8214796 1.1286154 2.3912458 -0.56700164 0.7955542 -0.92980945
循环 0.50496656 -1.695024 2.65245 1.0894562 -0.36531162 -0.3153799 0.95429194 -0.40677866 -2.7442389 -2.1002443 0.8878141 -1.4435898 0.8944812 -1.0628438 -0.0071412628 -0.9802025 1.45141 2.2562616 -2.1707144 2.326438
获取 -1.1674811 0.5674546 2.659276 1.7104865 -1.2844434 -0.45941803 -0.21391541 1.0652508 -0.11194314 0.6550732 -0.54550946 -1.9235338 -1.2338322 -0.26447898 0.09189818 -0.868243 0.68049115 0.73764944 -1.5706737 -0.23167196
否则 -3.0575612 0.1298938 -1.395716 -0.5480674 -1.6576511 -3.7106934 0.6102676 1.0035439 -1.8405288 -0.26395786 0.024832282 0.098032296 -0.4519054 -0.04860381 -0.5396415 2.7155218 1.4894078 0.5609091 -1.1590642 -0.3676213
等 -0.7491635 0.13872574 -0.92442244 0.26407132 0.57380235 -0.5812421 -0.036374316 0.06602083 0.7016774 -0.30038136 -0.50824803 -0.8810912 0.73190916 0.032542117 0.20485371 0.4270304 0.72025174 -0.43093348 0.2611836 0.48584622
字母 -0.41056544 -4.118945 2.5434854 -0.2714615 -1.2448626 -1.0172278 1.8375031 1.2655437 -1.5035065 0.8157137 2.3472772 -0.8875931 0.09843043 1.0447685 0.116392255 2.1182528 2.1970696 2.2721047 -1.8286718 2.1462257
第一个 -0.19521916 -0.64665747 2.72791 0.54649913 -1.5291486 0.15498538 1.9201522 -0.06268498 -0.62764806 2.0670073 1.1204553 -1.0272546 -0.41868523 -1.1067009 -0.25553063 1.3094869 0.7767337 -1.7016659 -0.74553627 0.10880801
数据类型 1.96999 -0.93803006 0.95886374 1.1650766 2.7815957 0.011505025 -1.3725598 3.2980068 -1.1140774 -1.2724319 -0.56006956 -0.8416605 0.6523565 2.183653 1.4435233 2.652665 -1.0752136 0.43401664 -0.56120926 -0.24866061
任何 -0.16158006 -2.090247 -0.9547522 -0.52121156 0.09413427 0.78729266 2.2257311 1.5718669 -1.1337526 -0.232232 0.105433725 0.049919862 -0.4955965 -0.4597688 0.57283944 0.9170666 0.78654 0.40071663 -0.40161368 -0.2323727
赋值 0.7928506 -0.8121387 -0.7802629 -0.6018056 1.7195976 0.5590735 0.35047358 1.4827439 0.2249466 -1.4670937 1.2697757 -2.977464 -0.25303128 2.1375818 -0.51555145 2.3814504 1.1139767 -1.0811361 -1.7954979 0.2540563
包 0.46694183 -0.5818562 -1.2081957 0.23589773 0.69719386 -0.037733085 -0.5527901 0.7322717 -0.49909866 0.9847604 0.45224205 0.1390256 1.9210844 -1.5222111 0.7339866 -1.0136065 2.277948 2.024036 1.6822119 -0.7784293
添加 0.29344672 0.17218663 -0.0084023625 2.1193562 -0.19172993 -0.7569398 -0.1495985 -0.115940206 -0.33749688 1.6085695 1.9023354 -0.79700184 1.625975 -0.88664085 0.4132221 -0.34689647 0.36720997 -0.66901916 1.0299592 0.5641146
判断 -1.8053426 0.44697073 -0.95471495 1.0928291 -0.8668114 -3.0442078 1.4668608 1.4015391 -1.87907 -0.34839094 0.46981174 -1.6518825 -0.68031925 0.40762645 0.8710582 0.297154 -0.2902114 0.85847014 -0.5307017 1.7726997
成功 -2.176894 0.44027445 1.239746 1.0632411 -0.73402953 -1.0083565 2.2097154 -0.5028854 -2.3773973 0.8098168 -0.32595444 -1.0736829 0.25477988 -0.9724434 -1.3445818 0.58148026 2.1519647 0.40893373 -0.894451 0.119779855
服务器 -0.68578637 1.5712857 0.23794253 1.1775837 1.4119658 0.8879922 -1.2929446 0.11964282 0.42388165 0.70865214 -1.0589712 -1.904557 1.8896574 -1.2398589 0.4179165 -0.8227498 2.8373842 1.2252024 1.1569029 0.11997291
不能 -0.11453726 -1.135475 -1.2446538 -0.49704733 1.1526376 0.51665515 1.0093329 1.4197613 -1.100181 -0.8525602 0.8091289 0.00057265034 0.42143852 -0.01935256 -0.111631565 0.9866594 -0.15758486 -0.3230396 -0.037683293 -0.20433845
版本 -2.0384598 -0.9058217 -1.8164569 1.1372119 0.17391223 -0.714463 0.39814743 -0.9372112 -0.4896945 0.91499656 0.35611913 -1.0357527 0.39199266 -0.015293955 0.7101808 -0.31481743 1.0028508 1.0226798 0.8126395 2.324257
相同 -0.12288331 -3.0315173 -1.6431128 -0.902767 3.307587 -0.44728222 0.489572 3.5388074 -0.2039291 -1.5068432 0.27824515 -1.0669392 -0.7904118 0.2958718 -0.1948069 1.492461 1.3649669 -2.492265 0.09339375 0.35724893
更 -0.1958606 0.0009739616 -0.94314456 1.1294999 0.6664647 0.90265685 0.35307795 0.16064031 0.3183695 0.6135808 0.1572097 0.13218191 0.90650284 -1.0669504 1.4368879 -1.3285205 1.4572421 0.48434475 1.2925639 -0.53923094
测试 0.03374951 0.59474736 1.8300651 1.065687 0.88812125 0.2080986 0.6170495 0.19789995 0.01095893 0.87998444 1.1154872 -2.8040068 1.306277 -1.2118155 0.8984923 -0.6983484 1.7394196 -0.43149775 0.80337703 1.7700583
格式化 1.9749193 -2.279722 0.259941 -0.13443002 -1.0887436 1.3973985 1.0023441 2.3114953 0.30891418 0.45716807 -0.60337996 0.2568076 1.6470673 3.0914457 1.7336626 1.9324582 1.3584768 -0.6412836 -1.2735746 0.32598507
迭代 0.62735796 -0.32935113 -0.05543483 1.0252823 0.59733 -1.6106688 1.8322951 1.1968887 -1.6549914 -0.6505865 0.018202128 -1.9266131 -1.9773422 -1.8271437 -0.55084217 1.4705133 -0.7826337 -2.1497843 0.9323229 -3.76996
方式 -0.010892583 -0.5483693 -0.8106242 -0.30369842 -0.27264974 -0.08237506 0.53702843 0.46926638 -0.29423517 0.32054532 -0.4427282 0.024062218 0.46751812 0.19014944 0.7288741 0.90412664 1.2557241 -0.37591964 0.48172775 -0.63887256
只 -0.99336934 -0.2907377 -0.950449 0.7496842 -0.5660103 -0.21583016 -0.22319652 0.22499129 -0.58354056 0.40891573 -0.015352151 0.23836213 0.74537104 -0.34750697 1.0368227 0.5777691 1.410957 0.37234694 -0.3444349 -0.29267925
一些 -0.13327645 -0.287467 -2.4788928 0.6187293 1.4011748 0.5238077 -0.5347636 0.29719052 -0.20266515 0.32355902 0.004296458 -0.6013189 1.110622 -0.8949093 0.81538707 -1.0040987 1.3506111 0.8591255 0.9656469 -0.19473447
这些 -0.47378507 -0.9959183 -1.6766715 -0.9786139 -0.24222624 0.436126 -0.9709956 1.566969 0.24239889 0.42333582 0.08900136 0.6684472 0.34969723 0.44741654 0.6566957 1.1888846 1.0942037 0.6773263 0.11316572 -1.6991836
多个 0.68950707 -1.2529773 -1.0175537 -0.40354967 0.21185866 0.11004808 1.4755261 0.16579653 -0.5042693 -0.5377092 0.8345407 -0.43875423 0.10963005 0.519031 0.11666285 0.3657962 0.91086066 -0.6822082 -0.5640606 -0.63559663
内 0.24799012 -1.6671402 -0.15183444 -0.64137757 -0.53049994 -0.9306078 1.1328971 2.6456733 0.16845897 0.044393286 0.5369667 -0.8186565 -0.73763096 0.3372245 -0.014314506 0.8333661 0.0026208689 0.5425363 0.7060826 -0.49771434
形式 -0.097032204 -0.33477196 -0.15495755 -0.39419314 -0.8703198 0.10399368 0.7237236 2.0315065 -0.2273027 -0.12531224 -0.45467606 0.6191747 0.38696623 -0.024892254 0.9459825 0.3669368 0.6973478 0.24224132 -0.49603543 -0.68385553
查看 -0.065319374 1.3704227 1.0397762 2.760226 1.7468053 -0.53619957 0.4878531 -0.1737223 -1.3511653 0.55089074 -0.7070334 -1.8391429 1.4893377 -0.58215165 0.06724253 -0.43060777 1.3010824 0.87607783 0.5563522 1.1260114
命名 1.5662327 -1.3874048 -2.8556328 -1.0083911 0.5177599 1.1204588 -0.22800605 1.3080565 0.9353709 0.3118548 0.9691375 0.3360652 1.273064 -1.2319909 0.6796573 1.3618733 0.4713656 2.949007 0.4468271 -1.7274104
语言 -0.5620843 -0.48991287 -3.3954802 -1.0519093 1.6210958 1.9209231 -1.0029997 0.94449484 0.6188067 0.48379466 -0.754256 -0.2166895 0.47016987 -0.55200183 1.6727154 1.4382468 2.0641418 -0.25704724 0.20087689 -0.6232532
生成 -0.04671188 -1.1310235 1.1508126 0.07536421 -0.32596615 -0.44707373 0.82761216 2.027708 0.4235865 -1.2547853 -1.4313182 -0.7789035 -0.36122772 1.0121721 0.6757237 -0.11985448 0.90724534 -0.15995249 0.23929338 -1.715485
命令 -1.0626408 -0.021103343 0.16894464 2.6170485 1.8684745 0.76134276 -0.8010449 -0.5196969 -1.4515386 -0.09623827 0.48763236 -3.0032177 0.61084336 0.5027565 1.3751934 -1.4407643 2.009978 2.2270887 1.0351193 1.845893
内置 1.3609711 -1.616299 -0.81733966 0.28834274 1.4428881 -0.11725658 0.007112055 2.8980207 0.31488827 -0.22137491 -0.05179189 -0.7181662 0.16389409 0.24246395 1.1785547 0.26556173 -0.3891549 0.83988076 1.4759539 -0.62902904
发生 -2.4756334 0.3237989 -1.8102984 1.6919729 0.7020388 -0.76112384 -0.42262933 0.42650068 -2.8401332 -1.0451179 0.90580183 -1.1958972 -0.04737055 -0.6010803 0.22557908 -0.31817552 0.26634756 2.107799 -2.8015625 -0.022898223
由 -0.29335487 -0.6986584 -1.3659555 -0.5468144 -0.14222984 -0.15930094 -0.54051703 0.6783817 0.52937937 0.86843 -0.013530064 0.31870726 1.4125211 0.08866304 0.4077618 1.1544778 2.1105494 -0.7155141 0.26109484 -0.2440934
直接 0.58059376 -0.24404252 -0.87363064 1.2305708 1.4199353 1.0802078 -0.027374357 -0.117979564 0.11508769 0.7625169 1.0039194 -1.0760276 0.7253318 -1.0591254 0.52740407 -0.79162794 0.7025035 0.67358506 0.4130282 -0.89956087
数 -0.42504773 -1.448473 1.139918 -1.2524456 -1.6784167 0.15410376 0.6066586 2.1346052 -0.1763757 -0.07625473 -0.15708071 -0.8697835 -1.1168047 2.482078 0.25798357 2.9905512 1.3218642 -0.6354917 -2.5131533 0.8855389
一种 1.1247594 -0.7559111 -2.4630454 0.042162433 1.610437 0.1586585 -0.7308695 1.6608636 0.09749441 0.28869325 0.35428777 0.5688324 0.77849674 -0.6343217 1.3721967 0.8858739 0.1438374 0.12189169 0.73740447 -1.3603361
计算 0.41698313 -1.2347335 0.6569728 -0.1819471 -0.9575006 -1.9074899 1.1363218 2.0567071 -0.49471956 -0.6054376 0.8705839 -1.1414332 -0.4346936 1.528177 0.068575606 1.267102 -0.57384735 -0.037830494 -0.15974323 0.46355546
式 2.7078617 -1.6540405 -1.3946549 1.7596762 0.17266181 -2.8454154 1.9036863 1.2951895 0.77513736 0.43657348 2.7242203 0.4486532 3.3356829 -1.3360782 2.1246054 0.70921826 -0.13864249 0.36449397 0.5541796 -1.3649298
推导 2.8679292 -1.7426764 -1.4050854 1.5642745 0.089400955 -3.130048 2.3311067 1.3002765 0.8714469 0.33859786 3.2026782 0.7426795 3.7113988 -1.7373264 2.1346436 0.8285634 -0.04505643 0.18191597 0.51189214 -1.28997
上 -1.631743 0.71920437 -1.0999897 0.8384271 0.88572043 0.12393575 -1.4282147 -0.48601034 0.07329046 0.5713248 -0.54731 -1.6274685 0.5564602 -0.18640323 0.3254958 -0.29190263 1.9854752 1.4987669 0.5295029 0.47888273
对应 0.30757317 -0.02191969 0.5621399 -0.5163522 0.5688028 0.08750823 -0.33427203 1.0922431 -0.45086738 -0.4154362 0.20431902 -0.3886167 0.7930973 0.13557753 -0.39892745 0.8248008 0.9157939 -0.04383389 0.15665983 0.39222196
部分 0.36735243 -2.1341808 -1.6073165 -1.3030531 -0.39211276 -1.0043976 -1.1557376 1.5610675 -0.8042015 -0.09784972 0.041766036 1.5337206 1.8140988 1.1893274 0.55407715 2.3987863 2.10913 -1.4887849 -1.3777101 -0.15637714
写入 -2.035463 1.6926807 0.41517437 0.68164605 -1.1846077 0.4957324 -1.7625465 -0.5423032 0.60172606 0.96843356 0.9236213 -0.42737934 0.2536799 -1.2656783 1.6564689 1.7258503 1.4103636 -0.6812936 -2.1631765 -0.9593846
功能 -0.119530775 -0.5936075 -1.6562523 0.53899026 0.46292144 0.5649041 0.18239391 0.86046255 0.43052253 0.7796028 -0.5547532 -0.43841046 0.7772761 0.07673213 1.3118895 -0.61603236 1.2859504 0.66015935 1.4420915 0.03183643
条件 0.3839221 -0.6397171 0.48673236 0.9456849 -0.036700875 -0.53661686 1.46596 0.38393006 -2.6246622 -1.6806087 0.47133043 -0.9987391 0.86579436 0.16978188 0.26149237 -0.25632292 0.4868894 1.6822094 -2.012291 0.5086206
不是 -0.23373707 -0.22594431 -1.3027804 0.18534312 0.28771165 -0.6363264 -0.35614574 0.50643575 -1.4573631 -0.047962397 0.12587503 0.8937113 0.39116263 -0.31178188 1.0651672 1.0034049 0.015076691 0.48185647 -0.6706409 -0.86840695
一般 -0.99484044 0.57471204 -0.4971096 0.6856014 -0.18129438 -0.4637536 0.11934851 0.34068364 -0.14136776 0.24114676 -1.0811062 -0.18991369 1.2037289 -0.59175646 0.40596387 0.30349788 1.3415577 0.48372412 -0.47649708 -0.09781109
记录 -1.4986503 0.98812586 2.857616 3.0234659 0.72968405 0.30872706 0.18822572 0.7046039 -3.0876143 -0.08400408 2.3476 -2.6750348 -0.7486598 -1.2573583 0.9325377 -0.122499965 0.27053708 1.0959827 -3.0734038 0.18290077
里 0.92895305 -0.82706165 -0.8599289 -0.027843706 0.7655453 -0.1424905 -0.5371943 0.7814368 -0.57443285 -0.2619579 1.7501125 0.1254056 0.961117 -1.1616944 0.6589522 -0.055140905 -0.01804524 0.18225697 0.449158 -1.1173931
用户 -0.102234505 0.4660943 -1.0579647 0.49442595 1.2932129 1.6914152 -1.6087561 0.6981279 -0.46996236 -0.2915448 0.10258535 -0.87322 0.22738323 0.3035042 0.6750788 -0.27166083 0.8278631 0.9271041 0.26290464 -0.9680497
等于 -3.5949373 -0.68581164 1.0950234 -0.31392556 0.71184367 -3.1143255 0.83527094 2.138581 -1.13394 -2.4037242 2.6026065 -4.0348473 -0.36488193 0.40312973 -0.8893971 1.6499631 0.64892274 -0.30300525 -1.2076969 1.9455339
实现 0.9329526 -0.98162514 -1.0923789 0.89314246 0.6029471 -0.1962933 0.04049671 1.1889119 -0.057956778 0.08010552 -0.18926555 -0.86456907 0.37786838 0.9523181 0.44932508 -0.20824023 0.38638052 0.28781006 0.8902691 -0.88174987
说明 -0.5782784 0.4657565 0.47054902 0.49050397 -0.42141658 0.68954235 3.0579684 1.6726732 0.24732387 -0.034662306 -0.615779 -1.1993607 -0.78947014 -1.5624135 0.56951374 -0.6029776 0.8888917 -0.5779815 0.47592276 -1.2425362
之间 0.28755394 -0.8969206 0.67924 -0.50307626 0.2070793 -0.0080230115 -0.03698735 1.8704511 -0.39017272 -0.42734808 0.23692584 0.06966091 0.023541173 0.7252818 0.19248101 0.9284283 0.31481242 -0.4168522 -0.4001074 -0.47112763
环境变量 -0.6308602 0.36629456 -0.23412472 -1.0783162 1.3752998 1.0308967 -1.5863817 0.13868338 -0.3771741 0.042987753 0.10525824 -1.3119912 1.8009818 0.38702944 0.08993687 0.35312644 2.9544837 1.9656305 1.3194064 0.86235046
作为 0.933365 -0.7633432 -1.0472343 0.3175589 0.7213005 -0.11303195 0.08959412 1.0400524 -0.7721642 0.079138 0.09462705 0.04530955 1.0423111 0.09524272 0.42977172 0.8021799 0.3515422 -0.33869487 0.26735112 -0.8466496
演示 -0.7355041 -0.027425393 0.8310868 0.45771536 0.7651591 -0.5860938 0.6537856 1.064811 0.3325864 -0.79921716 1.0996004 -3.3205462 -0.7564744 0.6537856 -0.109450825 -0.405292 -0.085012935 0.30084568 0.12878832 2.306532
多行 -0.3948891 -2.154483 -0.31879482 -0.20254636 -0.19097301 -0.19867 2.9505067 -0.6944109 -1.2065113 1.0856293 -0.3557778 -0.7103477 0.8157377 -0.8797859 2.0280101 0.36216432 1.9685317 -1.0689844 -0.7837071 -0.2690901
比较 -0.32345825 -1.0616772 -0.7704959 -0.7617373 0.34759763 -1.1094674 0.26232576 2.2455842 0.81095105 -0.4251464 0.42309797 -2.2755065 -0.5834187 1.7894092 -0.56602085 1.0798935 0.6011165 -0.6937126 0.3118771 1.3636729
地址 -0.37166452 1.4906818 -0.51864797 1.1185229 -0.4354369 -0.6000689 -0.15041433 0.49380088 0.6214012 0.9486182 -1.649019 -0.18452415 1.9907342 -0.6640666 0.22266057 -0.35322663 1.7538552 0.5196541 0.5928584 -0.17647181
然后 -0.79844594 0.5094001 -0.50356036 0.24353375 0.9351057 0.49969164 -0.7060856 -0.8010533 -0.40510875 -0.34097388 -0.32100236 -0.9930559 -0.09120345 0.092621595 0.5977632 -0.089570865 1.0398675 0.9702377 -0.32574517 -0.029789817
空间 1.4360638 -1.5348527 -2.528194 -0.82177174 0.75942767 0.7384028 -0.46497503 1.083749 0.90854657 0.16932178 1.2098238 0.0231159 1.4607812 -1.2635417 0.5578053 1.4623051 0.877893 2.7526834 0.5413665 -1.632887
子句 -1.077965 -0.90121114 -2.2873895 -0.26458767 0.9515904 0.39125887 -0.70013535 0.3040726 -2.5450602 -1.8427582 1.5891384 0.58426166 1.2748516 -0.9870502 1.0950879 -0.36980575 1.1274334 1.6744256 -2.2365901 -0.70617574
解析 -0.9590321 1.2135023 -1.1938281 0.026889483 -0.33008727 0.14772353 0.14145435 0.760634 -0.01168182 0.21027051 -0.04521875 -0.11173819 -0.4175632 -1.3313937 1.0972023 -0.3647067 0.338609 -0.112445295 0.07541102 -0.9386985
类似 -0.91380686 -0.90834486 -1.3183239 0.48774698 -0.1742716 -1.5871987 0.5545061 0.6364464 -0.63654953 -0.35270262 0.4483918 -0.045409188 0.6827448 0.017574506 0.039520014 0.90907276 0.46970716 -0.605628 -0.13236837 0.061845854
插入 -1.3299353 1.3609729 1.5262696 2.887537 -0.13688141 -0.43255836 -0.1473111 0.2307736 -1.9144279 0.8824493 1.5333385 -1.3968813 -0.5748498 -1.6390457 0.16351879 -0.45046207 -0.48285913 0.44971493 -2.0199842 -0.2525246
写 -0.14104457 -0.57447517 0.13642348 0.4154386 -0.23491625 0.69938654 2.6011736 0.695407 -0.023561748 -0.11461248 -0.35308293 -0.7055253 0.108772784 -1.2643465 0.6891207 -0.41750115 0.62769365 -0.3908911 0.47415224 -0.24155456
所示 -0.0011813149 0.18938 1.1289499 1.0171493 0.34585992 0.7588981 1.5730764 0.2205283 -0.3560184 -0.36261454 1.0271394 -1.817499 0.4361712 -1.0550115 0.3995633 -0.9647589 0.32872155 -0.15207797 -0.3087799 0.7698134
注释 0.26223132 -3.021349 1.3909159 -1.1868099 0.7631882 0.5233509 2.9946108 -1.3024724 -0.71989655 1.2010592 1.1729678 -1.4103814 -0.0493322 -2.21989 3.1663933 0.283657 2.106821 -3.0424554 -1.5871469 -0.40831953
开头 -1.9587055 -0.28830934 0.28256527 0.06711924 -1.9741384 0.37441236 0.13089518 0.16017748 0.18681157 1.4942803 1.6436356 0.2584984 0.17029431 -1.3869516 1.9895118 2.338983 2.1236002 -1.102997 -2.5510643 -1.3413414
关闭 -2.096214 1.2520518 0.9946429 1.2551277 -0.09560069 0.9195316 -0.8170806 -0.4171839 -0.7150048 0.12489918 -0.053487305 -1.9025975 -1.1214361 -1.166728 0.52992535 0.3411824 0.88258964 0.5954856 -2.44772 -1.0620145
标准 0.63410145 -0.42319292 -1.5762237 -0.15886141 0.86337906 1.1218139 -0.25572336 1.0427121 -0.1973072 0.5465972 0.017524693 0.06678258 0.56298983 -0.43902612 1.2575868 -0.38098058 0.751602 0.7210595 0.96393096 -0.17471355
但 -0.19512953 -1.491748 -1.3703928 0.011943679 0.36040708 -1.418831 0.50838584 0.6289052 -1.4114447 -0.4178689 0.77770936 0.11674533 0.80532974 0.0050420505 -0.16532263 0.67563075 0.20837268 0.66516507 -0.092389256 0.70180434
文档 -0.15422463 0.6803341 -0.6816931 1.2236651 -0.15195936 0.7400028 -0.27300704 0.6150496 -0.05971713 0.96710396 0.9046075 -0.93358225 -0.10625596 -1.5513595 0.9086275 -0.71612406 0.43888414 0.36730558 0.5705132 -0.95204157
更新 -0.6831047 0.74867356 2.046355 2.877503 0.32602426 -0.06797977 -0.43859008 -0.24683024 -1.4512718 0.5075385 1.5636401 -2.2374916 -0.073971175 -0.6980957 0.2650315 -0.3434691 -0.20175305 0.042055342 -1.1447945 0.928045
即 -0.9878804 -0.109179474 -0.3698205 0.6172624 -0.29006743 0.06341933 -0.6847714 0.12302283 -0.29723743 0.64142454 1.4251279 -0.12703887 0.31164974 -0.82023346 0.23503026 1.1610633 1.1131685 -0.43488348 -1.3702524 -0.8187639
例子 -0.60518104 -0.23268037 -0.84760994 -0.23991904 0.4992162 0.92143506 -0.65512383 0.3136862 -0.31539586 0.10547688 0.283995 -0.67805725 0.13500044 -0.23707943 0.20502663 -0.0262788 1.1873658 0.510923 -0.5576612 -0.13832168
子类 -1.356432 0.33256653 -3.4165769 1.2419894 2.0993543 0.6259478 0.03800519 1.8456904 -0.9444451 -0.22562265 0.5428288 -0.32461008 -0.70730853 -1.595204 0.981477 -0.51587 0.058540925 0.4984995 -0.39554298 -1.9787133
多 -0.022063106 -0.01860382 -0.93274593 1.2581245 0.6858576 1.2315633 0.6256169 0.6103115 0.18969657 0.7944699 0.4450805 -0.18719509 0.7759209 -0.8836469 1.1655523 -1.0483261 1.2396677 0.35405326 0.775003 -0.57542706
邮箱 0.21913157 1.0287337 0.54096276 1.7934433 1.3161483 0.37631685 1.6613395 0.10076096 -1.16144 0.5285528 -0.4595495 -1.592961 4.1345797 -2.0465615 0.24114257 -1.0394938 3.5752468 0.23322722 1.8304522 1.2909284
二进制 -1.5149869 0.7559575 -0.20195083 0.117317304 -0.8934961 0.3420881 -0.0072821626 0.4783259 0.9718159 0.37761104 0.10370126 -1.0920966 -0.45683813 0.6060573 1.4486711 1.8160574 1.4149213 -0.69370353 -1.978862 0.41587433
描述符 -2.7186117 1.3376144 0.36874366 -0.891946 -0.81594044 -0.6396059 -2.1664872 -0.3892553 -0.023119204 0.5348663 0.20548788 -0.06570546 -0.0416342 -1.5817533 0.9125873 1.640427 1.634167 -0.5996768 -1.2898057 -1.4893022
接收 -0.32887882 1.1329998 1.8617167 0.4732718 0.1787428 0.4948536 0.037369836 0.6457461 0.4307006 0.44037953 -0.40775427 -1.309498 0.9731153 -1.14517 0.56624174 -0.77105755 1.9458405 0.27663004 0.33863637 0.051661186
这样 0.61922204 -1.105624 -1.2614089 0.6571545 0.88300514 0.81035954 -0.54845196 0.42681748 -0.5473043 0.38703868 1.06382 -0.3219844 0.6366512 -0.36578923 0.8937442 -0.37506866 0.6337699 0.96284604 0.41035247 -0.6586838
浮点数 0.07417492 -1.5631953 0.09427979 -1.158367 -0.20418894 -1.4153681 -1.0664529 2.813219 -0.37804252 -0.7674989 -0.849472 -0.12609455 0.15212306 2.2813993 0.4380403 2.677706 0.8588761 -0.5956542 -1.1173488 -0.48837125
情况 -0.33916742 -0.36671802 -0.64646596 -0.073469445 0.2440024 0.6923682 -0.9560376 0.97921 0.31971392 0.11532667 0.047067024 0.23327237 0.4786469 0.34254235 0.7446759 0.1679856 1.33076 0.7582892 0.4685523 -0.39554128
块 -0.43392143 -1.5645003 0.15515493 0.17378753 0.47473887 0.9514769 0.09016833 0.17635617 -1.6663986 -1.3141074 0.417192 -0.65554 0.23553045 0.18149398 0.9987712 -0.5355816 1.056324 2.1506116 -1.6816514 0.33899838
引入 -0.21598093 -0.94439715 0.031324755 -0.0101145115 0.583337 1.976149 -0.9538755 0.3366649 0.58251417 0.32890263 0.9563751 -0.923616 -0.25142694 -1.2345593 1.3437698 -0.95908844 1.2281319 1.3543242 -0.13745922 -1.0946265
用来 0.40203202 -0.38480595 -0.87899864 0.11913756 0.61555684 -0.10743644 0.33739996 0.91275644 -0.3006415 0.083236784 0.03475771 -0.15146048 0.2552277 -0.43287426 0.8207571 -0.01977392 0.28230882 0.55708516 -0.27414298 -0.7449445
第二个 -0.036969878 -0.6299854 2.841954 1.2419782 -1.4604739 -0.13875099 1.5930338 0.769824 -0.68001 1.9646664 1.5600692 -1.491112 -0.025377583 -1.0274981 -0.032834288 1.5218987 1.5283638 -1.8569422 -1.2386476 -0.18443409
结束 -0.35889143 0.29664445 1.1645788 0.7933371 -1.4598155 -0.017377077 0.9574172 0.09749267 -1.2431854 0.3006082 0.87055737 -0.33094132 -0.31504637 -0.730417 0.14467433 1.0198512 0.7752203 -0.2185005 -0.9974013 -1.1441483
截取 0.96272177 -0.3462517 1.8014714 1.4262949 -1.3466463 -0.7712688 1.7084497 1.129752 -0.54324 1.1763958 1.8500999 -1.1147282 0.65992254 -0.1863315 -0.1962413 1.3415557 -0.17142871 -2.0324056 -0.16953675 -0.064709045
这是 -0.2425601 -0.9045775 0.107054435 -0.34115878 0.74757665 0.7973199 2.0182087 -0.3051044 0.3937838 1.1267014 0.4579263 -1.1984018 0.52146494 -1.8886344 2.303603 -0.08582307 1.7357098 -1.4326775 -0.48804706 -0.52255815
将会 -2.9482164 1.168645 -0.9199391 0.9965761 -1.2900423 0.22544484 -0.1869392 0.032481436 0.5447373 1.1532671 1.5536407 -0.37488937 0.46572047 -2.0204349 2.5488193 1.695374 2.2437236 -1.0712166 -2.158553 -1.3449744
器 0.34305575 -0.14468798 -0.117096916 1.0460511 0.79525095 -0.43256924 1.0838599 1.1657777 -1.0144262 -0.036477588 0.07494679 -1.6923479 -1.8431584 -1.6804687 -0.07508338 0.84210837 -0.15291943 -1.6139188 0.80491644 -3.4170587
我 0.30463064 0.18011382 1.1779246 0.6597454 2.3610425 3.5662158 1.3044392 1.1687326 0.4051291 0.23215605 1.0581019 -2.3458703 -0.3592465 -0.61540455 0.8473253 -0.570521 1.6096188 0.43603188 0.33981264 -0.75944966
最 0.63417566 -0.7131999 -0.41504282 0.20554355 -0.08127008 -0.34874237 -0.6338931 1.2877107 0.23172845 0.4809069 0.62039393 0.20018388 0.34602174 0.2374254 0.32102105 0.65677243 0.2164722 -0.15750314 0.20772514 -0.7028239
比如 0.055494245 -0.95569456 -1.4515158 -0.12032652 0.25521672 -0.121796295 -0.5309354 1.3303378 0.046591323 0.65943617 0.27729917 0.43140566 0.76509756 -0.92844033 0.6594379 0.35951462 1.6056572 0.8347553 0.4822657 -1.1707368
作用域 0.9427767 -1.7107542 -1.3981986 -0.977913 1.4472227 1.274093 0.1476033 1.4094324 0.983306 -0.44700617 0.9954699 -0.9212612 0.4075593 -0.3333021 0.76036096 0.61613876 0.43862718 1.6514866 0.61188436 -1.0365852
已经 -0.48126295 -0.117078625 -1.5780772 1.3276757 0.79043484 -0.365212 -0.5624889 0.41539943 -0.6233014 0.5304425 -0.19667998 -1.193336 0.56931967 0.023659365 0.35011816 -0.48453125 1.1442083 0.9880009 0.60707414 0.52614236
可能 -0.38708094 -0.33569825 -1.7367799 0.1314173 0.39681238 0.22317556 -1.3160139 0.5583257 -0.16028222 0.098729946 0.2850204 0.07886366 0.8708381 -0.21144529 0.30704358 -0.06879734 1.3261195 0.75637066 0.21643323 -0.6133648
解释器 0.24002619 -0.821885 0.038610164 -0.18607385 0.42411193 1.4215258 -0.93870443 -0.24309415 -0.5861081 0.1451667 0.727498 -0.6591158 0.68657786 0.049067046 0.44143733 -0.24156736 1.6743855 1.4135221 0.25294235 0.28731126
类型转换 1.5473069 -0.6054681 1.2582408 1.3794633 2.6359694 0.30204093 -1.3298798 2.4628596 -1.266675 -0.8239512 -0.7233292 -1.6551479 0.6902027 1.1952909 1.1105998 1.702315 -0.15998973 0.8003227 -0.5190824 -0.47340015
最后 0.07866969 -0.51797795 0.329249 -0.115761146 -0.6373241 -0.6432555 0.7063353 0.25539154 -0.6187026 0.39142132 0.70014066 0.3498409 0.4527577 -0.33225602 -0.06524879 0.5729975 0.5568403 -0.75571287 -0.35506156 -0.36015305
就是 0.47992066 -0.15270357 -0.7860598 0.4844046 1.2444974 0.93900716 0.058957823 0.63677603 0.2672918 0.34480658 0.68269694 -0.7696574 0.78059345 -0.58998996 0.60922265 0.013209941 0.7363341 -0.022895545 0.6904255 -0.6169841
日期 0.81489587 -1.6290594 1.5209206 -0.046778344 -0.6678975 0.6035087 -0.5114746 2.2288966 1.5809811 0.7001444 -0.47755364 0.24888366 1.185902 1.2416008 0.9934982 0.40110445 2.2435398 0.17968236 -0.2945065 0.0369161
反 0.41948375 -1.5557933 -0.2244883 0.6646094 -0.21444009 -0.5584106 0.87385625 0.62462604 -1.9880863 0.52288985 -0.97583765 -0.8086959 0.62683403 1.312259 -0.8421151 0.8345014 0.4381484 0.8303347 -1.2732671 0.9881316
退出 0.37257776 0.4154772 1.0930016 1.3902597 0.13447109 1.5958165 -0.68685484 1.5242612 -0.36500505 0.02099532 2.1263611 -2.0860848 -0.007494077 0.23198284 0.71614814 0.2920387 1.9259139 -0.21341969 -0.60046196 -0.97134256
包括 -0.017651064 -1.5162543 -1.0864636 -0.15148555 -0.50785154 -0.2215564 0.98740536 1.2768061 0.23137072 0.81953144 0.69244206 -0.41717 -0.1393216 0.5131566 -0.17307381 0.9482041 0.7648328 -0.37547436 -0.13271885 -0.02677369
浏览器 -1.1873599 1.510994 0.6598884 0.33934158 1.1336677 1.1092683 -0.68156934 -0.45865098 0.3610853 0.2910515 0.09707991 -1.9801035 1.0208513 -1.3983164 0.74897325 -0.11383848 2.1552956 0.2672829 0.17223442 0.5176256
长度 -0.11033367 -0.049111106 0.7030753 -0.16271634 -1.973659 -1.2647395 0.9605755 1.0925493 -0.24603309 0.74034953 0.3304101 0.045516733 0.18719648 0.3841109 0.30022386 1.6772143 0.19204727 -0.86593753 -0.74037766 -0.35765576
系统 -1.2328447 0.27722645 -0.24201035 0.40285668 0.49468666 0.15251777 -0.84656954 0.49875444 -0.014416904 0.18498424 0.00047971384 -0.91489196 0.48848817 0.13033597 0.5806843 -0.025804536 1.6552114 1.2949009 0.63935435 0.2730611
显示 -0.25245127 -0.0005564419 -0.45271513 -0.54981285 -0.1527135 1.0949979 -0.15172789 -0.09930274 -0.31805974 0.26942292 -0.512179 -0.046300184 0.67227876 0.28083766 0.52977115 0.31876913 1.6228728 0.5939461 -0.55365336 0.23139606
其 0.093336046 -0.15058967 -0.7599607 0.035606727 0.72912097 0.5770824 -0.46594128 0.69971585 0.0038850908 0.25039524 0.74881744 -0.42801806 0.32899818 -0.5192413 0.39958632 0.57630295 0.5095561 -0.51318145 0.33212942 -0.7190691
非常 -0.83231276 0.6232916 -0.08869508 -0.63962215 0.4113912 1.5489447 -0.7721737 -0.071476795 0.104612365 0.23655432 -0.54773873 -0.61691415 -0.9612165 -0.28807518 1.5861298 1.4718473 0.8894618 0.04507533 -1.422432 -1.1307242
放在 -1.9881921 0.22921622 -1.2035232 0.45280865 -1.0515819 0.785671 -0.23823786 0.3161099 0.5136526 0.7688881 1.2062706 -0.10747353 0.5502636 -1.477266 2.2595496 1.2661817 1.922685 -0.21192579 -1.878127 -1.2229187
非 -1.055727 -1.5525651 -1.4958014 -0.42805278 -0.96735275 -0.34293357 1.2422723 1.1348054 -0.35990828 0.5635415 -0.14703105 0.32061064 0.57850796 -0.14873813 0.63371325 1.7296637 1.7947456 0.024962034 -0.5531347 -0.44758734
套 -1.0921592 1.48539 -0.80719554 1.3185251 -1.0692387 -2.8378692 -1.0008214 0.7975178 -0.27394393 0.75428367 -1.7907754 -0.3720572 2.2718122 -1.0662543 0.41440153 0.8669939 0.81197715 0.42608467 -0.81220186 -0.6354644
打印 0.60102403 -0.48803172 1.2548546 0.6535073 0.42660522 1.3892322 2.0635736 1.1528279 -0.4143198 -0.078352824 0.29110402 -1.1938981 -0.49399444 -0.43503657 0.58304524 -0.16075636 0.6335084 -0.09081033 -0.3957766 -0.5599665
空 0.15868427 0.7318326 -0.7240884 1.4238266 -0.18258205 -1.4924915 -0.0018331032 0.731901 -0.79611915 0.5245359 0.37709874 0.64501053 0.8048625 -0.9640622 1.0913656 0.19871071 -0.031204326 -1.1161888 -0.15743685 -1.0519546
接字 -1.2348771 1.4908177 -0.8002911 1.1836791 -1.1084195 -2.8666222 -1.3398563 0.8857936 -0.115148894 0.68737584 -1.5818607 -0.29076117 2.3309743 -1.0733012 0.36398292 0.86525726 0.9049195 0.39344856 -0.8962156 -0.6850451
那么 -0.20619288 -0.6681285 -1.2939236 -0.31617814 0.19940262 0.5823346 -0.7954263 0.60010934 -0.45138216 -0.19445583 0.5868838 0.73999375 0.6333878 -0.39684647 0.577734 -0.1411277 0.92865235 0.74842083 -0.08514507 -0.6411023
这种 0.55701506 -1.4262382 -1.4698712 0.07172265 0.73167604 0.813863 -0.24829581 1.0969728 0.10713388 0.32340807 0.30138132 -0.122808136 0.6754149 0.17072189 0.4791637 -0.3997594 1.1786082 0.8371813 0.44116437 -0.49852094
随机数 -0.2850512 -1.3766105 1.0048717 0.038231105 -0.60604525 -0.94080395 0.92672104 2.6674907 0.57917136 -0.8651901 -1.501462 -1.0197464 -0.115192674 0.30492714 0.8152676 -0.16359104 1.1173633 0.19744936 0.5229801 -1.6691955
标志 -1.3113993 -0.7173857 -2.1171303 -0.21661633 -1.5507876 -0.95689607 2.38759 0.1019454 -0.8476172 1.076863 -0.8779276 0.3921667 0.74458295 -0.9713225 0.61564696 0.9399367 2.220173 -0.43345392 0.3356429 -1.0117446
及 -0.23926829 -0.30958712 0.028342133 0.3720576 0.048201494 -0.23553859 0.48571685 1.2053325 0.10961988 0.20244567 0.15494996 -1.2978818 -0.17716298 -0.11593219 0.41323873 0.0010420921 0.1625678 0.09420552 0.29491723 0.2882396
引用 -0.21033429 0.27076083 -1.527096 0.16881768 0.9310873 -0.9626618 0.63839835 1.1358497 -0.7156882 -0.5497481 0.26909986 -0.70715904 -0.29769677 -0.26922914 0.21354118 0.5755615 -0.04563353 -0.1715997 -0.111376576 -0.38828975
传递 0.023038521 0.14845048 -0.33847436 -0.27908462 0.98966664 0.287011 0.03699198 1.0944479 -0.3796142 -0.6186697 -0.59446955 -0.59891015 0.9081858 -0.16496377 0.3998279 0.630422 1.1386603 -0.2445654 0.37681046 -0.5053164
大于 -3.058439 0.10357789 0.80930233 -0.72383225 0.5012347 -1.8831664 0.5217657 1.801943 -1.4058871 -2.1721897 1.4626719 -2.216876 -0.23258296 0.24193601 -0.30483583 1.25998 0.5041749 0.17659822 -1.2719063 1.170636
介绍 -0.07103667 -0.19184409 -0.8844358 1.2754388 1.1926283 0.14091362 -0.5119499 0.15152289 -0.27748802 0.2876472 -0.33729184 -1.4698774 0.7680936 -0.04747661 0.4381602 -0.5316337 0.84541816 0.9841617 0.42456734 0.5364836
指针 -2.6462436 1.1203095 -0.6403188 0.73638237 -1.7932096 0.4183216 -0.6009841 0.1784552 1.0227543 1.3478559 1.0464603 -0.1512866 -0.13517457 -1.439813 2.2414813 1.6097288 1.993347 -0.94533 -1.7560996 -1.3698269
响应 -0.6396928 2.196449 0.87123966 0.06403361 0.034389433 -1.8857514 0.030267872 1.2383242 -0.25713372 0.27267835 -1.0899878 0.00985679 1.0742177 -1.8872461 -0.39156282 0.69172215 2.1201298 -0.4609528 0.4338018 -1.3558701
搜索 -0.9661553 -0.5981324 -1.0197656 -0.1923428 0.57087314 0.36912853 -1.2589486 -0.04210473 0.14574456 0.6065914 0.61079764 -0.4626127 1.0315737 -1.0436418 0.7873879 -0.23578556 2.4029882 1.1975744 0.8157556 0.08463622
表 -0.6897388 0.23075654 0.3765611 2.2458763 0.020627381 -0.5493723 -0.04379105 0.45879832 -1.0553014 0.49779126 0.43519032 -1.5784433 -0.291201 -0.4150652 0.6146196 -0.18307862 -0.10502189 0.6850797 -1.2568372 -0.15436779
第三个 0.25414926 -0.36902466 2.4998796 1.9876342 -0.73601127 -0.57279545 0.9671024 1.0683705 -1.0676873 1.2340102 1.9578162 -2.0650482 0.4521114 -0.2286151 -0.48412707 1.5294334 0.5290644 -1.6079853 -0.90716743 0.29460484
生成器 0.24676695 -1.1767449 0.07200319 0.38596234 0.3979711 -0.66094947 0.5905826 1.5754656 -0.1975825 -0.33331895 -0.22405882 -0.99450296 -1.0077652 -0.7289645 -0.024918376 0.28601202 0.3821234 -0.12278432 0.98188555 -2.2965424
查询 -0.8422595 1.0670319 1.1946155 1.7431606 0.40756837 -0.6891337 -0.17920557 0.32585782 -1.6331327 -0.30544367 0.2536667 -1.357969 -0.53775233 -0.5951805 0.20088035 -0.49415228 -0.17018597 0.86314505 -1.5830235 0.118817784
小于 -2.9976077 -0.06997694 1.5956227 -0.30412927 0.20867871 -2.434746 0.38672695 1.3643155 -1.2640378 -1.9414206 1.4464104 -3.180918 -0.25614262 0.2789612 -0.7852983 1.1322595 0.906763 0.15443747 -1.2478783 1.6696562
给定 -0.7358723 -0.44565442 0.27263921 -0.59159195 -0.31415376 -1.6287916 0.37687153 1.8860824 0.43029198 -0.43088046 2.041847 -1.633214 -0.005007581 0.942133 -0.805061 2.1230586 0.3755271 -0.39205217 -0.15911354 0.012415152
继承 0.16565247 0.24355309 -1.5616034 0.84481 2.3381295 2.0227365 0.6394542 1.3317503 0.61609054 0.33944634 1.0652986 -1.0902205 0.02790126 -0.8275159 0.9512483 -0.6497394 0.61984766 -0.014538065 0.30634153 -1.495824
一样 0.19698465 -0.8335377 -0.3984794 0.21824524 0.5119141 -0.065780506 0.15734553 0.6983667 -0.08915591 0.09899774 1.1968746 -0.2927787 0.57413876 -0.05032559 0.09727873 0.5932607 0.19434214 -0.98829544 0.07516329 -0.22636554
编码 0.22876315 1.2559646 1.3247501 0.31386518 0.2501416 0.1356086 0.078284614 0.53654283 -0.51392144 0.48726752 -0.5803828 -0.25950176 0.86118674 -0.63350433 0.7049601 0.7314401 1.0218695 -0.44655317 -0.16589905 -0.20451058
基本 0.72035766 -0.28390315 -0.67092854 0.57699233 0.47317907 -0.21695556 1.1445887 1.3239584 0.09073149 0.33915767 0.59198916 -0.76601595 0.7788654 -0.7767677 0.8851937 -0.00031983302 0.27507213 0.16686223 0.5854271 -0.4116738
名字 0.12224023 -0.584859 0.15593044 -0.2275926 -0.27062804 1.0916847 0.81211215 0.48915523 0.11667729 0.751555 0.49430874 0.21649069 0.24405229 -1.0779754 0.6689769 0.19586205 0.978085 0.46245334 0.17044474 -0.5719727
本地 0.53845274 -1.8151295 1.7497065 0.56304777 -0.46002817 1.2141738 -0.38926625 1.8574743 0.54210097 0.73636776 -0.1580084 -0.6904781 0.9103355 0.40186945 0.8991793 0.03185946 2.1532764 1.3107288 -0.39047623 0.19339724
权限 -1.5644623 0.74124205 1.2400312 0.27112296 1.1338582 0.77521914 -0.38869318 -0.2679412 0.052749157 -0.53683203 1.0311594 -2.4437046 0.58951896 -1.1279861 0.6737086 -0.021618161 1.7223806 0.22571753 0.26203814 0.7824662
但是 -0.15681207 -0.8257124 -1.039289 0.06543607 0.34570584 0.21577767 -0.51273024 0.6052662 -0.070818044 0.3343979 0.5457089 0.10185638 0.59839463 0.2533578 0.540464 0.50021845 0.9032286 0.21348493 0.19678657 -0.35426384
前面 0.36146545 -1.2771177 -1.7646525 0.2815853 -0.23662151 0.043309018 0.94870937 0.62119794 -1.0561438 1.1598415 -0.11128154 -0.21394305 1.3348023 0.3573522 0.2581912 0.56144917 1.3966842 0.64041084 0.012548262 0.50974125
很 -0.06384138 -0.4326518 -1.8284885 0.04280144 0.8785227 0.43122366 -0.70906377 0.6179557 0.050068844 0.07685532 0.042545896 0.273926 0.6563302 -0.106742464 1.0555515 0.5650488 0.95635134 0.20165348 0.02270186 -0.80846095
所以 0.18247738 -1.2876006 -0.90297 0.12252553 0.58241916 0.090852104 -0.2472511 0.90764403 -0.29612195 0.238382 0.4389847 -0.09894279 0.6272376 -0.1096352 0.5889045 0.35909176 0.8349312 0.7800101 0.34574696 -0.18247025
完成 0.28703952 0.005690296 0.2591647 0.842542 0.61220604 0.0534508 -0.77051467 0.34786847 -0.67405957 -0.12798119 0.2187671 -0.6214277 0.5123723 -0.16854963 -0.14983042 0.34109122 0.7958425 0.4238944 -0.0032667099 -0.20314008
传入 0.24228802 -0.35878178 0.72001666 0.038456943 0.19765413 1.3083519 2.890509 1.5246638 -0.33932006 -0.648174 -0.2284751 -0.7572223 -0.8868488 -0.9414384 0.89371437 -0.0943279 0.35231408 -0.6882081 -0.19767499 -1.0239685
键 0.6266184 1.1240106 0.94046926 0.51165897 1.0256957 -0.8073881 0.0970863 0.6858978 -0.8312578 -0.6265428 1.6819075 -0.42301446 0.3080913 -0.4227136 0.6798114 0.89794236 -0.6830326 -0.20652539 -0.21238889 0.24676624
改变 -0.2891977 -0.6165914 0.043415762 -0.17639045 -0.31019935 -0.18889296 -0.19108477 0.56670403 -0.09036764 0.1826594 0.15503362 0.2204262 0.2757715 -0.0974111 0.09799526 0.8904069 0.15977971 -0.45389464 0.3732747 -0.13944952
之后 -0.7030492 0.22426462 -0.5135519 0.49939764 -0.07609624 0.18363428 -0.49379408 -0.17205165 -0.2739819 0.3666086 1.0686723 -0.13709661 0.35728684 -0.79786116 0.46545413 0.2728929 0.84442115 0.13857068 -0.733452 -0.36057383
里面 -0.212113 -0.8716031 -1.3060223 -0.37601933 0.25581023 0.72702503 -0.5221484 0.20076154 -0.31771365 0.73336256 0.5241722 0.17425656 1.112435 -0.8821231 0.90273136 -0.09012849 1.7215592 1.3525118 0.18799557 -0.48458675
标识 -0.18332346 -1.4067826 -0.85796714 -0.8558576 2.3585212 -0.6020714 0.036964085 2.4428892 -0.2350835 -1.4222924 0.68277216 -0.9060796 0.3324505 0.0427657 0.16156875 1.5199869 1.4380141 -1.743551 -0.08717864 0.21327713
所 -0.1465037 -0.493972 -0.57419336 -0.44793385 -0.15173063 -0.665505 0.059541862 0.8347216 -0.42430434 0.15802139 0.6227302 0.22283098 0.632975 -0.15523376 -0.12465458 0.91323406 0.56532574 0.0029711782 0.25150296 -0.43399855
括号 -0.21472658 -0.7939239 -1.1985304 0.31423286 0.08411039 -0.45725498 1.3451387 -0.052394364 -0.45987764 0.1759847 0.26679757 0.45992595 1.5660222 -0.886813 -0.05591204 0.11936952 1.2902769 -0.4056919 0.47235334 0.30060124
请 -0.7509673 -0.32236144 -0.11242105 0.6841395 0.043646388 1.2342855 0.7762275 0.6851655 -1.410089 0.14758293 -0.28214926 -1.1880883 0.101796724 -0.093048915 0.9112558 -0.374008 1.5507178 1.2288679 0.14459017 1.7523763
同时 0.35830095 -0.6837175 -0.619023 -0.44255418 0.21228129 -0.09111596 0.16477975 0.7158505 0.4680946 -0.1789398 0.9773149 0.000381855 0.20559916 0.8894612 0.31054652 0.44809586 0.47702137 -0.48219845 0.11616589 -0.09497245
整个 0.0021783262 -0.66027385 0.43961 0.1348054 -0.93289983 -0.4783413 1.654006 0.55952626 -0.7590536 0.45225376 0.5819227 -0.5486307 -0.13242783 -0.465277 -0.26945993 0.33808154 0.5364237 -0.0970022 -0.15292409 -0.69841033
浮点 0.07842415 -1.7844262 0.5266558 -0.65092427 0.3487439 -0.5468434 -0.5158807 2.4040287 0.06424702 -0.5296319 -0.11469281 -0.4290125 0.5641612 1.8587718 0.47691447 1.8670036 1.4947666 -0.62121856 -0.70119804 -0.24437581
好 -1.2366593 0.5001802 -0.938443 -0.58319914 0.48474568 1.543362 -0.76153535 -0.051000934 0.21030268 0.39574063 -0.5348064 -0.5014823 -0.77250016 -0.5279849 1.6749692 1.5080388 1.3360072 -0.035576712 -1.1660398 -1.3320931
个 0.65436494 -1.4078057 -1.2311697 -0.002345089 -0.13239439 -0.671992 1.6265112 1.8236527 -0.09251973 0.10854561 0.3784427 -0.35157874 0.07336866 0.13643709 -0.016663216 0.465923 0.3971462 -0.67883945 0.4103776 -0.6044999
还 0.42214745 -0.84953064 -1.2813776 0.72821873 0.38116023 -0.079610825 0.18762796 1.0839627 0.36429906 0.4230735 0.28259507 -0.8518243 0.076924086 0.027275117 0.53966033 -0.3121233 0.4120144 0.14260286 0.23607008 -0.36368573
给 0.39017415 -0.54629946 -0.5150677 -0.21506844 0.49961424 0.31886172 0.045445614 1.0811417 0.05674593 -0.6547445 0.10983633 -0.57194704 0.02238766 0.6968318 0.32740852 0.44154316 0.605311 -0.045815352 -0.17351885 -0.35324624
内部 0.089054 -0.7848734 -0.8952225 -0.044606794 1.2158298 0.7565491 -0.08653878 1.2252367 0.062393017 -0.13936432 0.7664779 -0.66488594 -0.18730381 -0.6033835 0.21913515 0.5675777 0.19796857 0.387491 -0.03713903 -1.2953514
调用函数 -0.10818238 -0.45168844 1.3463095 0.034951538 0.23713268 1.3131104 2.9015687 2.0767956 -0.3827364 -0.49016804 -0.20853183 -1.6230332 -1.0467726 -0.8150529 0.81878936 0.14435995 0.90510184 -0.23099707 0.14843298 -0.86613345
空格 -0.3704122 -1.0450915 -0.34927216 0.017983494 -1.2348223 -0.4253741 0.83193374 0.884551 -0.9996186 0.5514234 0.10748383 0.10748626 -0.1584562 0.46474758 0.33981264 1.0920986 0.40963268 -0.023712892 -1.0989535 -0.16443266
出现 -0.8921993 0.2636334 -0.5027316 0.25294483 0.6724701 -0.382604 0.0010675077 0.47893524 -0.77288735 -0.65070635 0.7547726 -0.61601686 0.10444524 -0.22144103 0.315275 0.65560097 0.5087811 -0.22359484 -0.33365715 -0.26664937
不可 0.6702067 -0.389552 -0.9893891 0.7067599 1.3225102 -1.5478045 0.24751261 2.1061735 -1.0094233 -0.5056403 0.48244634 0.077876925 0.6755208 -0.25518206 0.7605334 1.5617087 -0.48963606 -1.2588772 0.47601393 -0.5039598
时候 -0.3514218 -0.21545282 -1.3718023 0.345408 0.42192584 0.38854042 -0.3978617 0.20333554 -0.31834215 0.20291124 0.56184506 0.073454924 0.7541724 -0.626151 0.36528733 -0.29435152 1.036344 0.94882196 0.19502103 -0.6189087
提交 -0.42905235 0.5097962 1.3828622 1.7808478 1.3874745 1.4744096 -0.37945524 0.53834796 -0.582186 0.2397147 0.79375756 -3.0858648 0.6012396 -1.8166566 1.4387647 -1.2452538 1.663008 1.1435764 -0.98452896 0.8045503
重复 0.5014852 -0.36326656 -0.041994873 0.77259386 -0.48734194 -1.5589731 0.7985169 0.9207421 0.037656344 0.58195364 1.2972074 -1.2211083 -0.136831 0.27750415 0.03658661 0.67446524 -0.608115 -1.2551314 0.02705576 0.5230026
整型 0.49918205 -0.98561746 -0.10513277 -0.79304826 1.5702509 0.03792335 -0.36123532 1.3790857 -0.26977172 -0.7890043 -0.23333807 -0.52370363 0.16007873 1.3506331 0.51514876 2.1653998 0.8279021 -0.95739496 -1.3043354 -0.20334977
号 0.25838205 -1.1227973 -0.14792962 -0.21271974 0.06901669 -0.07247257 0.67563796 0.8936632 0.24138871 -0.068259776 0.5873382 -0.8716558 0.38214797 0.3100161 0.18593565 0.8362908 1.1040301 -1.1928658 -0.6174 0.34919867
下面 -0.63851255 -0.1250657 -0.5460972 0.19575752 0.6463234 0.22249635 -0.65908116 0.4318678 -0.5871927 -0.09822972 0.436101 -0.7500349 0.38266838 -0.32396507 0.41905722 0.14614387 0.8051692 0.6739295 0.0042758253 0.011356142
替换 -1.2074115 -0.63795424 -0.5825808 -0.17541854 -1.5153415 -0.2191195 0.8809634 -0.02417396 -0.7209488 0.374026 0.1764127 0.5125178 0.29539526 -0.05080374 0.6542547 1.2348646 1.0407571 -0.17450799 -1.0625787 -0.13872193
另 0.2814026 -0.4010796 -0.6754796 0.2528246 0.6801054 0.48843762 -0.15109825 0.65583974 -0.1286896 0.23869336 0.7483458 -0.31125957 0.042083714 -0.7181343 0.975639 0.60431963 0.41182247 0.27071226 -0.1704722 -1.3511854
每个 0.86154574 -0.9820906 -0.86422837 0.0363989 0.122537516 -0.22004798 -0.23273873 0.8234774 0.5059894 0.14031301 0.7922331 0.36952308 0.5261119 0.39841783 0.31574365 0.41653383 0.36864308 -0.5078228 -0.01088491 -0.8780029
并且 -0.6293713 -0.6138825 -0.6632611 -0.05463253 -0.668348 -0.22933231 -0.16900718 0.47620314 -0.24873346 0.8040824 0.5185172 0.0566079 -0.1631392 -0.29512754 0.3109546 0.943944 0.7932613 0.64986736 -0.722972 -0.84711605
命令行 -0.22378798 -0.24982238 0.9721935 -0.7380635 0.08729454 1.7831599 0.5819553 0.37140915 -0.06568682 -0.15967788 0.25192198 -0.8500983 0.15691347 -0.37892187 0.6622548 -0.41940764 1.7915103 0.85728127 -0.03515348 0.08692435
名 0.11220054 -0.5402106 -1.167749 0.22073916 0.78493077 0.2902902 -0.06015699 1.4043194 0.16436753 -0.18985617 -0.54035795 -0.6476299 0.29222777 0.0012027393 0.04164741 0.014053507 0.6560167 0.37109596 0.2237557 -0.5387291
当 -0.19264929 -0.43785924 -0.5882229 0.19373247 0.12867658 1.0501236 0.16718686 0.022767982 -0.69078135 0.1220589 -0.04967884 0.112756364 0.19847643 -0.47577372 0.45500726 -0.13423163 1.1393256 0.7141924 -0.54015946 -0.35524714
移除 -0.6438807 -0.21810369 -0.405296 0.88710564 -0.7298748 -1.9435444 0.22992103 1.0589412 -0.7265368 0.9759759 1.9328628 -0.43235743 0.2652187 -0.7619766 0.534943 0.6504437 0.017718896 -0.23808908 0.45292038 -0.3791952
无法 -0.30343345 0.119645566 -0.6907047 0.33261952 1.0485783 0.8188964 0.08367771 0.52957195 -0.008370466 0.25363088 0.30630443 -0.69258773 0.85741657 -0.5329941 0.5564083 0.13589522 1.553643 0.5696782 0.008128457 -0.64483654
向 -0.20838378 0.5434107 0.30886182 0.85326743 0.5053717 -0.045323435 -0.05618594 0.6041287 -0.21311367 0.2742225 0.17569841 -1.2619629 0.3913964 -0.9190818 0.25071388 -0.33283314 0.9533943 -0.009843324 -0.0011524302 -0.26312834
大小写 -1.229148 -1.3825331 -1.6705657 -0.56990826 -1.0779648 -1.2132051 1.3387481 0.33456776 -0.42538288 1.1283838 -0.34180886 0.1306645 0.665386 -0.22071257 0.40188712 1.3586837 1.9360734 0.07020186 -0.022354063 -0.36512554
排序 -0.4437667 0.1467882 2.3126738 0.6150145 0.16550495 -0.94855696 0.7522565 0.87160957 -1.4912118 -0.51955485 0.85669 -0.89888453 0.63449997 -0.09520885 0.73369396 0.46526033 0.29627427 0.9107389 -0.24646646 0.8185972
完整 -0.20302293 0.09821099 0.9650226 0.76422644 -0.367371 0.3168406 0.12080671 0.42515084 0.49295446 0.93619806 0.30412138 -1.0742114 0.20270991 -0.56085086 0.22481188 0.037436776 0.79256755 0.14711095 -0.17428978 0.37792057
变量值 0.079017214 -2.104866 2.6593163 0.5045565 -0.17499638 0.0355927 0.52261937 1.5837092 -0.69693404 0.25290245 1.560297 -1.9186028 0.46477005 0.12643749 0.7035337 1.4805576 2.4354048 1.4043219 -2.0338097 0.74602723
状态 -0.773287 1.132704 0.39154676 0.19281973 -0.1448025 -0.3994819 -0.32631686 0.55051684 -0.18561895 0.19396122 -0.42134944 -0.05678741 -0.2622821 -1.0467918 -0.48694232 0.24075824 0.91923684 -0.085411206 -0.24985816 -1.3233402
再 -0.08347576 0.4557492 -0.05058196 0.5257239 0.4837807 0.430947 -0.8705369 0.15661144 -0.060114488 -0.009662255 0.45098507 -0.5480704 0.0070185056 0.21795684 0.0016720776 0.5009385 0.2452512 -0.18362439 -0.52824754 -0.3058205
不会 0.06436991 -0.7994834 -0.92044944 0.1781145 0.03475696 0.2903119 0.45990154 0.80433106 -0.22830853 0.21267527 0.7292026 0.06971243 0.0866714 -0.4566412 0.43764633 0.23681091 0.20485637 0.446428 -0.27042595 -0.8796128
抛出 -1.5140209 0.7109889 -1.6670666 0.002819962 0.3671706 -0.31472942 -0.5222207 0.8187257 -1.4723974 -0.8579104 0.37914988 0.29274088 0.62994343 -1.0071899 1.0007782 -0.05398053 1.031476 1.0985147 -1.0946563 -0.95966583
转义 0.18041882 -0.86217946 -0.4799192 1.1867249 0.28574276 -0.24782221 0.74908364 0.40213197 -2.1201546 0.46591574 -0.6504981 -0.55884737 0.78893626 0.7938213 -0.01566681 0.5392895 0.34003198 0.91610104 -1.3549235 0.82647747
事务 -0.6635842 0.101057254 -1.5469182 1.454214 1.1135192 0.1762066 -1.5528327 0.34973508 -0.2285635 0.3317249 0.6389075 -1.0866853 -0.4622453 -0.69868547 -0.1065894 -0.5557636 -0.6401742 0.5335477 -0.98295957 -0.65260005
网页 -0.9450742 1.1950526 0.23735422 1.3960731 0.026598644 -0.28129753 -0.2764637 0.296696 0.24066375 0.5647593 0.042018943 -0.9710855 0.3989586 -1.0408921 0.79622096 -0.5080305 1.2278779 0.2627189 0.26360124 -0.19796728
因为 -0.081558816 0.08210815 -1.0822903 0.31685188 0.46598685 -0.4096256 -0.46604213 0.6070737 -0.008657395 0.24058016 0.43896127 -0.16502409 0.45390198 -0.28540152 0.5540298 0.25560573 0.2198453 0.17208657 -0.07171431 -0.6698785
三个 0.6840468 -1.5353491 -0.4380744 -0.41036353 0.7002896 -0.21969365 1.8628244 0.1061103 -0.65873516 0.92635036 0.08747418 -0.32015875 1.233181 -1.1820734 2.0315313 0.49746102 1.8725182 -1.3671018 -0.021240843 0.05304475
您 -0.30371284 -0.06440921 -1.4090666 0.8518276 0.795033 0.1875465 -0.6341707 -0.19242491 -1.3224739 -0.13413486 -0.30983832 -0.54231554 0.32423148 0.15710464 0.62439424 -0.112698115 0.47006536 0.8945222 -0.22024603 0.5450372
同样 0.44173566 -0.7110189 -0.5896309 0.3445996 0.84034544 0.6655042 0.30996746 0.86075956 0.15673323 0.2440412 0.5540432 -0.9292796 0.4382786 0.22698413 0.4807766 0.044675734 0.7787195 0.20959619 0.21245201 0.056927502
前 -0.019793736 -0.3905785 0.19749388 0.86748004 0.35022607 0.27800503 -0.010096718 0.5820063 -0.303622 0.15292433 0.54801 -0.931211 0.0700557 0.6567574 0.027172819 0.4765763 0.77254564 0.24086821 -0.4507302 0.09766276
之前 -0.022080807 -0.1286311 0.018950563 0.33197844 -0.6667607 -0.14720657 -0.3469791 0.5580195 0.13048938 0.526241 0.27000082 -0.013836322 0.11061664 0.5655493 -0.24341461 0.943659 0.26917756 0.1057908 -0.44704548 -0.6607928
编程 0.077603705 -0.09743328 -0.7261486 0.923927 0.67359114 0.56269854 -0.048694786 0.23678699 -0.14736778 0.521504 0.16544235 -1.1253293 0.53147846 -0.3986765 0.5576163 -0.45803067 0.9259179 0.60574967 0.51167643 0.31528074
父类 -0.35632017 0.1646882 -0.74994886 0.79201293 1.984807 1.7157688 0.867905 1.5632862 -0.14636117 -0.13827589 0.54348046 -1.1073104 -0.8251166 -0.9847802 0.636937 -0.65111965 0.36690676 0.17735177 0.34282908 -1.2973335
查找 -0.24072896 -0.43228608 -0.19137327 0.11733118 -0.4660289 -0.48213735 0.7056374 0.65530425 -0.4558816 0.5211718 0.46533027 -0.128093 0.5822072 -0.4897078 0.4839433 0.49444 0.80256385 0.5007789 0.31799933 0.09289804
下载 -1.375028 0.40127322 -1.2002319 1.2958947 0.79179114 0.50609 -0.41336003 -0.13587312 -0.051510494 0.52293605 -0.49975088 -1.3490963 0.907953 -0.2704871 1.1070638 -0.32559788 2.1723711 1.214099 0.6130334 0.6986888
子 0.51226455 -1.3312339 -1.44792 0.17889512 -0.0055822497 -0.081747875 -0.20027867 1.2993696 -0.48158497 0.9872025 0.40918127 0.45921087 1.311635 -0.71476215 1.1213537 0.47616953 1.3258784 0.84577703 0.30482614 -1.0613378
头部 -0.05300482 1.4537659 1.2860543 0.6413168 0.47144678 0.759962 0.4905358 -0.36309257 -0.04576851 0.7660006 0.055535596 -1.1942123 1.40857 -1.4588907 0.61909574 0.042982455 1.8718632 -0.3380442 0.08363468 0.2026213
特殊 -0.09833829 -1.1196066 -0.9678517 0.19810472 -0.17198892 -0.23696895 0.82203794 0.7525797 -0.22229111 0.76289654 -0.05325495 0.2141822 0.26529762 -0.30897048 0.35351148 0.5876061 0.53931886 -0.49935627 -0.05617944 -0.3455552
这里 0.27718806 -0.19197872 -0.29011443 0.9809792 0.6253538 -0.04774659 0.40759093 0.60714173 -0.270057 0.26418433 0.15080106 -0.7629578 0.7889251 -0.15659577 0.3022599 0.07949137 0.61939114 0.01318262 0.17735653 0.012199771
范围 -0.7425052 -0.33988866 0.18499042 -0.6746955 -1.2723193 -1.8064365 0.34096435 1.857275 -0.4960512 -0.11859649 0.33713323 -0.34443697 -0.18997064 0.39123282 -0.43665296 1.3653039 0.4678381 0.13621823 0.019011352 0.038639136
一行 -0.55274487 -0.50312966 -0.3134566 -0.038979556 -0.77847564 -0.086387895 0.67761093 0.32914114 -0.57104254 0.47860628 0.108426675 -0.19425933 -0.2623336 -0.0021905762 0.37654158 0.78485024 0.75204307 -0.24086867 -0.8199196 -0.12383135
库 -0.22879535 -0.446538 -1.58145 0.6228828 0.39138058 0.42237374 -0.62377214 0.6414648 0.0097133415 0.75411505 0.58318454 -0.33030844 0.6040108 -0.6412171 0.9324176 -0.29344928 1.211199 0.5940955 0.6272157 -0.3196696
通常 -0.046871275 -0.8701748 -1.9816434 0.18755764 0.5529941 -0.9417714 -0.11116844 1.2765785 -0.13910477 0.2522177 -0.1414039 -0.02389575 1.1659482 -0.32850626 0.49634248 0.48671564 0.98529196 0.28329933 0.16285166 -0.63943154
斜杠 0.115132846 -1.5560756 -0.71090215 0.8605603 -0.062289067 -0.42795956 1.1994852 0.53130084 -2.145851 0.5817777 -0.9316466 -0.45436364 0.8361694 1.0427214 -0.26717478 0.8012895 0.8065345 0.85486186 -1.4035566 1.0407922
成员 0.58475256 -0.535466 -0.35042688 -0.2731894 0.5852947 -0.6798738 0.61130357 1.1100253 0.8245549 0.19347173 1.0773443 -1.7765094 -0.20369406 0.8245622 -0.29043165 0.4701594 0.14501882 -0.42123902 0.3000825 1.0539467
章节 -0.08835313 -0.23689115 -0.5708316 1.3116513 1.0250179 0.053422913 -0.3689442 0.19807012 -0.42572406 0.315736 -0.37471038 -1.6582016 0.74656886 0.14221568 0.18979476 -0.2460874 0.894515 0.73726124 0.38139609 0.9305442
随机 -0.59446853 -0.40888163 -0.032958362 -0.11992152 -1.3609921 -2.04436 -0.25573364 1.7246262 -0.31605428 0.3799938 0.48128548 -0.021612523 -0.17728202 -0.11623793 0.045017656 1.0326865 0.0705379 -0.3170177 0.40672064 -1.1195208
找到 -0.9106564 -0.73052585 -1.1282634 -0.13599198 -0.27373135 -1.0054214 0.20924914 0.31111646 -0.55035126 0.11874886 0.7429489 -0.05673839 0.084146276 -0.27345917 -0.16910663 0.5332133 0.4141654 0.41600886 0.012174101 -0.19922931
声明 0.32627058 -1.1126878 -0.674864 -0.3501134 0.7278292 1.4610047 1.0375004 1.4054894 0.51177746 -0.043478966 0.68863964 -0.36737671 -0.37962452 -0.43163356 0.6282756 -0.107648954 0.5546894 0.3826529 -0.010847055 -0.9365584
数据表 -1.3545574 1.1513467 0.32602927 2.4213579 0.4141984 -0.55348873 -0.48547035 -0.072444946 -1.2822587 0.2222344 0.9474572 -1.5284219 -0.3471892 -0.8874069 0.6258663 -0.19246681 -0.20661977 0.5008719 -1.6117651 -0.036493246
复数 0.6807736 -1.8061428 -1.4690626 -0.1698304 0.23439096 -0.9722075 -0.65021646 1.593376 -0.70951277 0.31382275 -0.08890888 0.4143454 1.6236938 1.0139456 0.87705284 1.7297664 1.5255537 -0.7296962 -0.8007712 -0.2317901
私有 0.27615964 -0.5185139 -0.41069192 0.28620532 2.285481 2.1054645 2.0866265 1.7985961 1.209156 0.7132549 1.6655722 -2.4107177 0.14798531 -1.1620425 0.79549605 -0.36053056 1.0780995 -0.41865504 0.400061 -1.1515416
读写 -2.1885724 0.65689504 -1.2372934 0.8509868 -0.91760117 0.13759978 -0.2619099 0.97972447 0.54182976 0.85308164 0.73603207 -0.757713 0.19192497 -0.95187473 2.2518585 1.51716 1.9596518 -0.42799652 -1.6182532 -1.302991
保存 -0.72854626 0.29601046 1.7074325 0.30177402 0.23721124 0.7580821 -0.93589586 -0.39376104 -0.20403148 -0.017116996 0.8386749 -1.592287 -0.23761655 -0.38520053 0.102681026 0.029515473 0.9157677 0.46443066 -0.30427444 0.17363039
称为 -0.23418228 -0.5056701 -1.2478842 -0.2461182 0.7903703 0.70142996 -0.6857955 0.35812762 0.3678487 0.15706564 0.6823196 -0.49232072 0.10497829 -0.2005787 0.39471164 0.39289203 0.929198 0.12890474 -0.23149374 -0.53141314
队列 0.62075496 0.15650268 -0.9758143 1.1518276 -0.06323351 -0.1336873 -1.1232618 1.2521179 0.40728343 1.056322 1.4692678 -0.33270836 0.46128944 0.10103759 -0.19804399 -0.19065902 1.2288355 -0.68719757 0.59605527 -1.5777901
型 0.21072857 -1.4936262 -0.66317743 -0.39021888 0.8177788 -0.24588323 -0.599577 1.4180653 -0.44166696 -0.3425623 -0.34552872 -0.090702444 0.8011313 1.2967247 0.6056328 1.6744171 1.3494279 -0.46349055 -0.77002746 0.12931693
协议 0.024364311 0.44824433 -0.41907105 0.26244974 0.18826196 0.4562258 0.08626817 0.3992988 0.46896943 0.39501154 -0.16104564 0.0015804531 0.88245 -0.4483061 0.57313055 -0.20971084 1.1155638 -0.0029832628 0.44895372 -0.06918564
先 -0.59589 0.17781688 -0.81779474 0.9375173 0.8931669 0.56069964 -0.7900481 0.16468117 -0.19382663 0.16775508 -0.0010510609 -1.0410604 0.4059483 -0.068713255 0.6051973 -0.17953677 1.1701083 1.1404611 0.1305662 0.047790818
还有 0.065071546 -0.9258498 -0.94313097 0.2401979 0.49239743 0.17793936 0.06780265 0.76575816 -0.25038072 0.3021646 0.69546527 -0.07507801 0.1370964 -0.49503544 0.66829956 -0.10000278 0.2558268 0.30444372 -0.10491415 -0.9024812
原始 0.20979679 -0.90086555 -0.3196145 0.5744504 -0.28058 -0.23502786 0.48149762 0.5798179 -0.70546407 0.81664056 0.59669286 -0.2973774 0.6485018 0.032366697 0.33942208 0.88640153 0.52903384 -0.312077 -0.37160572 0.26751658
即可 -0.37397492 0.16802232 -0.28263152 1.126022 0.84495103 0.18868494 -0.4922483 0.14591813 -0.3538511 0.14247 -0.1962547 -0.82609826 0.87270033 -0.010093403 0.620285 -0.16116728 1.0866649 0.6411599 0.41462854 0.2655761
可选 -0.95587504 -0.1577408 -1.5366554 -0.5543711 -0.5203739 -0.33107206 0.68220025 0.145771 -0.4925187 0.16168582 -0.3194039 0.77609074 0.49254 -0.79526985 0.7651798 0.32358283 0.99738264 -0.119411774 -0.08330569 -0.4868541
结尾 -1.561387 0.5167149 -0.24095611 0.8565992 -1.0485512 0.16899358 -0.5212787 0.17318307 0.23042884 1.1074724 1.4306716 -0.30021363 0.24958774 -1.294284 1.221479 1.1861817 1.3145607 -0.43244117 -1.1521143 -1.041991
区分 -1.1630841 -0.83424044 -1.8999695 -0.72814506 -0.3735401 -0.88275653 1.0535207 0.307769 -0.29819325 0.57795787 -0.28886166 -0.082265414 0.66990995 -0.102092154 0.3537156 1.2344596 1.8530582 0.3342345 0.18573152 -0.32113603
常用 0.11158362 -0.048812434 -0.08314974 0.70046294 -0.007987556 0.19592178 -0.013451046 0.72774744 0.3151081 0.47776592 0.031307384 -0.8484036 -0.117792934 -0.035966348 0.2503936 -0.42720154 0.1374167 0.1026439 0.556127 -0.38136053
让 0.28693634 -0.3692647 0.09679833 0.17576346 0.40819195 0.8061071 0.059178885 0.56749517 -0.8169925 0.040453937 0.0011238962 -0.9934477 0.18281916 0.7578121 0.20835902 0.2722385 0.6952504 0.69315165 -0.34717757 0.40578803
允许 0.11383386 -0.46402097 -0.496981 0.0129371295 0.47464314 0.38393414 0.1509153 0.81081194 -0.3598661 -0.11125723 0.3119454 -0.31385455 0.14576766 0.31024316 0.39378402 0.5911431 0.2580926 -0.19141997 -0.08290847 -0.21800557
标记 -0.7709909 -0.25909334 -1.3071364 -0.63869554 0.10719229 0.392248 -0.313923 0.28730622 -0.11088341 0.21940672 -0.34775186 0.19697656 0.61891365 -0.54854965 0.63675773 0.6456456 1.2121431 0.10986191 0.27416354 0.19909146
子串 -0.8256853 -0.7978572 0.89611614 0.39449105 -1.8377842 -1.2474406 2.3976972 0.83962727 -1.3375325 1.1646217 0.63534683 -0.8940484 -0.0210341 -0.51888245 -0.72576594 1.5731307 1.383071 -0.8620872 -0.696011 -0.48395106
为了 -0.4547436 -0.1338283 -0.5055079 0.7431256 0.4884685 -0.017419627 -0.4251253 0.00018826617 -0.658492 0.14830706 0.18732204 -0.4538431 0.011398635 -0.32863414 0.23531753 -0.13949762 0.34506303 0.41860756 -0.2214139 0.09868246
等等 -0.8570454 -0.6474302 -1.8190861 0.24079673 0.10385634 -0.36655116 0.7091326 0.9137559 -0.53457487 0.26376897 -0.12923913 -0.21524845 0.29685998 -0.44964138 0.30090407 0.39326888 1.0139384 0.082119405 -0.044526815 -0.497259
常量 -0.010644843 -0.38508835 0.40827876 -0.7091334 0.14250709 0.15930113 -0.761509 2.2929926 -0.25389585 -0.48735526 -0.02851563 -0.6178655 0.74820065 1.615362 0.24829632 2.261575 0.52471954 0.35690165 -0.5087731 -0.22651178
段 -0.6245759 0.73076713 1.1159478 1.2354232 0.9913804 0.938045 -0.3270794 0.19370544 -0.44459102 0.08005166 0.51334554 -1.8425688 -0.06063427 -0.92815554 0.78799886 -0.65099096 0.6845719 0.36890784 -0.85104966 0.28021234
只有 -0.35837516 -0.44048128 -0.66369224 0.26236928 0.31801662 -0.116624795 -0.21650672 0.7490241 -0.55765504 0.09817242 0.5094217 -0.22959597 0.19992237 -0.3353117 0.49653432 0.21577957 0.24219388 0.49261287 -0.2784562 -0.44932082
平台 -1.6029716 0.054667555 -1.543211 0.6049901 0.8940851 0.011521756 -0.5854621 0.12518437 -0.09686334 0.2889822 -0.47909692 -1.3496065 0.40887097 0.09572112 0.78022766 -0.016865753 1.840099 1.3918992 0.3943189 0.64430225
过程 -0.45570272 -0.41978356 -1.024411 0.4017494 0.56585383 0.1408062 -0.28275973 0.26841098 -0.79485935 -0.09323294 0.3064565 -0.5126181 0.7050687 -0.45430958 0.62928176 -0.21919133 0.97953445 0.8354912 0.014333358 -0.016122637
后面 -0.23909934 -0.2906187 -0.27713826 0.25958702 -0.07596928 0.01755134 -0.09427287 -0.32407236 -0.5344516 0.28050482 0.3773365 -0.0121772485 0.56443185 -0.3056744 0.37337527 0.35583323 0.67531294 -0.0556804 -0.8155301 -0.13303299
它们 0.07138173 -0.87986475 -0.95205307 -0.22282737 -0.21909438 -0.11968109 0.4978774 0.96944654 -0.29822615 0.4045003 -0.37768412 0.1298392 0.28511804 -0.07503806 0.34472907 0.50710845 0.7637486 0.06489378 0.14588445 -0.18591233
返回值 -0.37120733 -0.14534175 0.18237133 0.11399562 -0.27555788 -0.7904772 -0.04163113 0.75198525 -0.19836737 -0.16481122 -0.44469437 -0.19339934 0.26715216 0.0016533659 -0.22272524 0.3399222 0.365503 0.07622705 -0.10465474 -0.14500074
等价 -0.72686595 -1.9537427 -1.1399946 -0.068194844 -1.2553065 -0.2525622 1.6545653 1.2715075 -0.67349106 1.0403904 0.2561918 -0.058849305 0.43488955 0.2784465 0.22063224 1.6962272 1.7572699 -0.026490789 -0.5240755 0.20375314
换行 -0.5528754 -0.12787005 0.39747897 0.5933971 -0.85195285 0.07886225 0.5600804 -0.32530817 -0.32583636 0.49566156 0.2552842 -0.12896623 -0.005331845 0.10529172 0.40623835 1.0396867 0.7387006 -0.45392904 -1.3827281 -0.21758586
自动 0.21987133 -0.085113294 0.015253314 0.70427793 0.5542318 -0.102408126 -0.3483681 0.36355746 -0.37871715 0.31677428 0.20738767 -0.49449864 0.40475947 -0.15866536 0.19152197 0.15468955 0.10137015 0.107288755 -0.21002205 -0.10796027
符号 0.07533208 -1.4821925 0.18725625 -0.135483 -0.60457706 0.15709311 0.93762755 1.8350352 -0.5005851 0.22893858 -0.16948096 -0.9510165 0.24957174 1.4977877 0.47645548 1.868807 1.713 -0.1540059 -1.1807677 0.40471005
根据 0.14065644 -0.5750993 -0.42836145 0.30278632 -0.25419208 -0.29912034 -0.20723352 0.81494844 0.22745366 0.46476373 0.095823124 0.02135669 0.4084577 0.062062092 0.42320848 0.18778913 0.43849018 0.12616375 -0.035927236 -0.5507734
戳 0.015468142 -1.2386334 2.007875 0.3223765 -0.5238664 -0.2836383 -0.5127447 2.6286898 0.8153013 0.042305082 0.15768811 -0.5527427 0.072024606 1.0021609 0.81183654 0.61108994 1.3266667 0.11982081 -0.42377374 -0.58030343
配置 -0.75246036 -0.26948494 -1.0467807 0.74048865 1.051238 0.31449625 -0.78960764 0.74538016 -0.10780693 0.45633096 0.16788125 -1.4901484 0.95813936 -0.16490352 0.89243466 -0.086616345 2.212044 1.1057397 0.5514523 0.33203486
选 -0.9769393 -0.024279749 -0.6850135 0.08858365 -0.88042283 -0.6440423 2.1691027 0.7593395 -0.549028 0.7389757 -0.6825463 -0.35410744 0.28006446 -0.98620224 0.47028625 0.40879703 1.6649568 -0.39584234 0.23754886 -0.8978409
链接 -1.1184032 0.73704225 -0.36314052 0.87396526 0.22621232 -0.67676085 -0.2976965 0.01937724 -0.24901007 0.3015665 0.16024233 -0.8595931 0.4823841 -0.9819329 0.4111677 0.04438977 0.9308883 0.05846541 0.021946732 -0.02089563
自己 0.0068378975 0.045843255 -0.98696405 0.7022614 0.41426677 0.22364418 0.0067121685 0.5614791 -0.21884416 0.13758329 0.049666706 -0.26025665 1.0290132 -0.6010277 0.68871164 -0.16701917 0.8311643 0.68704295 0.38654914 -0.6597132
任意 -0.07026407 -1.2115158 -0.10915131 -0.015115837 -0.60623014 -0.067730874 1.4683862 0.8673775 -0.43450013 0.71055704 0.35847706 0.018405618 0.20672028 -0.23978783 0.39816675 1.0511255 1.1996884 -0.25072303 -0.31819877 -0.014600211
文件夹 -0.8777341 -0.06503588 -0.97361547 -0.07989593 -0.26190567 -0.62248385 -0.59709877 -0.05026454 -0.33489197 0.40769863 0.49458605 0.29081276 0.19962944 -0.8568217 0.6542039 0.51723284 0.5260212 0.07572393 -0.14030445 -0.17920281
去 0.28278333 -0.6223388 -1.1648191 0.32499513 1.0196432 0.45318156 -0.6271803 0.9696858 -0.060487214 0.21318957 0.48521516 -0.8069881 0.786568 -0.20878425 0.9597635 -0.006641734 1.027307 1.0579734 0.42685512 -0.52360433
选择 -1.4631029 0.356489 0.036507197 0.46408623 0.19499192 -0.13805057 -0.30148312 0.05510435 -0.28655747 0.08528296 0.43769854 -1.2238132 0.2350338 -0.3563239 0.80135334 -0.06289878 1.3366305 0.5717996 0.39410648 0.70488834
本 -0.168793 -0.121101454 -0.44626564 0.9753379 0.7896485 -0.08789053 -0.15021499 0.32373732 -0.26716062 0.36760378 -0.49148312 -1.1851156 0.8702477 -0.11436466 0.25061414 -0.28561148 1.029269 0.66154027 0.55988044 0.8173698
起始 -0.5438145 -0.812018 1.2129945 0.11461067 -1.5424119 0.06066966 1.4160928 0.21145031 -0.43826994 0.84660435 0.3465733 -0.14649943 -0.25879776 -0.30399323 -0.1657172 0.94866043 1.1543951 -0.22305976 -0.571909 -0.17594287
换行符 -0.40494373 -0.596833 -0.06131272 0.009143538 -0.8255814 0.065580286 1.0698159 0.010209854 -0.29308558 0.7894325 -0.067869544 0.25883982 -0.019158803 -0.29160297 0.39203188 0.64321953 0.5979337 -0.43772322 -0.6272079 -0.3808602
他 0.36429647 -0.49732995 -0.95417 0.34041482 0.69637716 0.9110707 -0.30762818 0.86706626 -0.10661945 0.5861191 0.27020696 -0.03934273 0.8503057 -0.70298135 0.77894485 -0.20212789 1.2506367 0.77357924 0.47986177 -0.8718968
序号 0.271015 -0.5285389 0.49739388 0.4365114 -0.0711483 -0.2621611 0.62613267 1.8123208 0.50670666 0.22708003 0.063891515 -1.0207101 -0.19264038 -0.15067932 0.30151954 -0.022315335 0.014200681 -0.29807276 0.36636385 -0.6102909
点击 -0.74424 0.5807658 -0.42337263 0.72306365 1.0448034 0.8022553 -0.6919999 -0.06682242 -0.14941421 0.1851181 -0.17571253 -1.4870502 0.38476738 -0.28656265 0.9213313 -0.533312 1.5401617 0.8343632 0.46666265 0.47441164
除了 0.29581422 -1.3897809 -0.91112393 -0.23051378 -0.04087708 0.17893654 0.9001627 1.353349 0.0019522189 0.4352836 0.42301127 -0.6878843 -0.10874405 0.34318936 0.09923022 0.7251346 1.0827856 -0.011067257 -0.15560505 -0.0030651102
外 0.54856145 -1.315158 -0.56212986 -0.20384024 0.18773049 0.4110591 1.0616449 1.9501954 0.41063 0.20981026 0.5764121 -0.8364494 -0.3543884 0.002714134 0.4560805 0.45100284 0.56072795 0.13377067 0.4048427 -0.6001938
引发 -1.2015831 0.48502576 -0.99004835 -0.39048603 0.011641869 -0.92831737 -0.32941985 0.485816 -0.55539536 -0.4595387 0.4127023 0.32349554 0.349029 -0.5394161 0.44954845 0.7921448 0.19823523 0.15439843 -0.70763105 -0.6610662
代表 -0.018756472 -0.7063815 0.26689887 -0.39341372 -0.53307986 0.14769422 0.36786875 0.75807804 -0.15547103 0.29659802 -0.07828184 0.17445417 -0.19343619 0.6294548 0.11659326 1.4566214 0.46357146 -0.45341793 -1.1364667 -0.36366862
存储 0.09254056 -0.28559548 -0.32551417 -0.3826398 0.6442974 0.27856073 -0.15349784 0.572786 0.22133866 -0.053186975 0.18520375 -0.6318752 0.66227424 0.18098179 0.5511727 0.62424517 0.9399461 0.2062036 -0.05541756 0.3007971
按位 0.106921956 -0.6137988 0.025502732 -1.0148731 0.18604067 -0.18864544 1.0617493 1.2142873 0.30041593 -0.45580626 -0.2752336 -1.387469 -0.34505174 1.3742287 -0.54670656 1.5503995 1.0607783 -1.1289155 -0.9124061 1.0615714
其中 -0.56995314 -0.68964154 -0.3140087 -0.5203317 0.6144764 -0.3338334 0.50172806 0.926457 0.15694387 -0.5439368 0.9530064 -0.9306648 0.0710315 0.60643244 0.47643977 1.2392504 1.3625937 0.14729871 -1.0646011 -0.1799201
键值 0.8732571 0.18722165 -0.17491253 0.4994496 0.74824065 -0.7454096 0.3917895 1.2373621 -0.4286987 0.115929 1.0345653 0.021692405 1.0660611 -0.93691295 1.519695 0.68839526 0.22710003 -0.8816194 0.3834984 -0.39559758
检查 -1.2628156 0.25672102 -0.76046866 -0.06721879 -0.59990567 -1.2454906 0.29956925 0.9546679 -0.8330491 0.08496243 0.33554512 -0.2534069 0.22048663 -0.1934873 0.3409012 0.8921539 0.8667232 0.25466603 -0.15348887 0.12686336
弧度 -1.0730233 -0.6465218 0.3108614 -0.60845506 -0.6125861 -1.2163258 -0.3993031 2.728178 -0.8525388 -0.39967453 0.43149266 -0.59313786 0.44730443 1.2263662 0.14095461 2.7580822 0.6479108 0.38915384 -0.24557881 -0.81756806
变 0.88594437 -0.3754102 -0.5753245 0.537697 1.1003821 -1.1451178 0.40388116 1.8839139 -0.8052915 -0.39089045 0.41855717 0.07202701 0.5176393 -0.18342003 0.6876091 1.1962105 -0.45144463 -0.9448527 0.3000129 -0.38801444
移动 -0.6836459 -0.021275343 0.5801662 0.1470029 -1.324837 -0.27507132 -0.13080537 0.4626338 0.40226486 1.1805128 0.4546314 -0.55402917 0.20369196 -0.103787534 0.031741966 1.4898677 1.6122649 -0.5951508 -1.1194202 0.45885208
字节 -1.2534443 0.8511542 0.46346152 -0.13627173 -1.137637 -1.0531667 -0.37402418 0.3908451 -0.26361597 0.45374197 -0.11057775 -0.24099204 0.013470797 -0.76128536 -0.0977524 0.9922475 0.7841438 -0.3664852 -0.87541664 -0.39391792
表单 -0.23423336 0.76885056 1.1442432 1.0373296 0.9979427 1.114047 -0.013283625 0.18513878 0.008676464 0.31556806 0.047960382 -1.8717737 0.35161573 -1.0942911 0.8127496 -0.8126066 1.283358 0.52271485 -0.21437858 0.30946878
展示 -0.31566492 -0.9379672 0.7708036 0.4773381 -0.38048875 -0.42540136 -0.12896073 1.9965453 0.51688445 0.08735928 0.23897754 -0.8588099 -0.32147762 0.7776588 0.39588755 -0.20818947 0.37207532 0.14135896 0.37120387 -0.24866243
启动 -0.17680117 -0.11222332 0.10501508 0.64911556 0.16811126 0.8339226 -0.35619536 0.7264232 0.03918841 0.33249983 0.74517864 -0.91037345 -0.010694068 0.1785864 0.37771207 0.05306161 1.3818887 0.057525553 0.032131065 -0.72555584
逗号 0.5137334 -0.95113736 -0.57430834 0.5677002 0.49923486 -0.94742084 0.5475424 0.99451977 -0.19996627 0.07022107 1.1329482 -0.28354165 0.93900764 0.10523055 0.19603376 0.78888255 0.16333993 -1.3446397 0.22228438 -0.066434965
空行 0.10064655 -0.33272254 0.65453196 0.25800958 0.23397519 1.0230953 0.32779536 0.32513914 -0.40419525 0.3122814 0.5489214 -0.7094769 0.03504617 -0.22279783 0.66094005 0.46711183 0.8510586 -0.32391688 -0.710363 -0.5493845
顺序 0.0822653 -0.47826496 -0.39044255 -0.15882586 0.19026317 0.120726645 0.62507737 1.1726105 0.0015016597 -0.3164568 0.182277 -0.14066407 -0.023990577 0.124124356 0.11814046 0.3904476 0.40932298 0.19011216 0.08200011 -0.53583646
结构 0.30438372 -0.6171848 -0.95634824 0.06736184 0.5503668 0.3077706 0.08811092 0.63544524 -0.33265737 -0.3004866 0.45617864 -0.09386513 0.71946853 -0.4150249 0.45531934 -0.2521986 0.57956135 0.49389198 0.037516866 -0.32107052
能 0.2361249 -0.6172882 -0.9584754 0.15330996 0.22525385 0.0933852 0.56062585 0.7332712 -0.56260604 0.068541676 0.18588744 0.07271913 0.44082445 -0.31842408 0.62725824 0.2471104 0.37645605 0.10537055 0.2816439 -0.41970578
局部 0.676255 -1.1839737 -0.8711839 -0.3654793 1.153234 0.8655341 0.39876258 1.4387226 0.41573402 -0.15768299 0.47890007 -0.6747782 0.36230773 -0.14184074 0.550001 0.36946252 0.4621938 1.0972911 0.38161588 -0.55178064
解析器 -0.4411539 0.5647121 -0.66824275 0.36394247 -0.3278172 0.050138287 0.3411323 0.9235905 -0.11754814 0.5116713 0.33543378 -0.3303836 -0.5204409 -1.338737 0.6463425 -0.1303251 0.56927365 -0.4554284 0.16775705 -1.4204807
触发 -0.80352014 0.03065756 -0.93545276 0.03934456 0.8141003 0.26535374 0.4119895 1.198198 -1.2880151 -1.0847727 0.23830034 -0.51859075 0.2461978 -0.24403149 0.45058903 0.32274053 0.49023053 0.551285 -0.91863745 -0.42404693
两种 0.5107396 -0.2796497 -0.45879003 0.44825953 0.6767132 0.4602601 -0.2649151 0.7941987 0.12923153 0.052354645 -0.022455739 -0.63014495 0.24318103 0.18371558 0.16049272 0.11523483 0.5372258 -0.20738578 -0.095390305 -0.44976813
头 0.12714788 0.78309625 0.62142426 0.21666758 0.0005349326 -0.37159285 0.523678 0.8163331 0.14267145 0.37645274 0.2431999 -0.6423886 1.2276969 -0.5437317 0.44315803 0.51774114 1.0878094 -0.18206754 0.29950136 -0.45406118
